tree
version=v3
num_class=1
num_tree_per_iteration=1
label_index=0
max_feature_idx=7
objective=binary sigmoid:1
feature_names=NUM_CAIS_TOP15_L24M NUM_CAPS_TOP15_L1M NUM_SUB_CAPS_TOP15_L12M TotalMonthlyInstalmentsOwner ACTIVE_AMT_PAST_DUE WorstCurrentPayStatusAccBalanceAbove1TAndUpdL3Y NUM_CAPS_TINK_L24M AMOUNT_CAIS_SBERBANK_L12M
feature_infos=[0:73] [0:45] [0:15] [-0.27362586031632646:0.49448403483497017] [0:23864418] [0:10] [0:389] [0:30457000]
tree_sizes=1514 1754 998 1201 1319 1427 1431 1329 1429 1552 1433 1765 1428 1545 1442 1430 1317 1451 1342 1435 1328 1553 1335 1452 1449 1775 1340 1559 1346 1452 1331 1566 1228 1456 1229 1234 1225 1672 1365 1005 1345 1675 1438 1225 1656 1460 1216 1102 1452 1128 1548 1761 1566 1352 1543 1447 1569 1442 1459 1796 1561 1327 1444 1670 1316 1560 1104 1330 906 899 1119 1016 1139 899 1023 1668 893 908 1123 1116 1122 1353 1117 1120 1773 902 1012 1110 1459 1462 1226 1227 1465 1343 909 1233 1557 1459 1011 1226 1237 1353 1339 1008 1763 1015 1351 1574 686 1352

Tree=0
num_leaves=13
num_cat=0
split_feature=7 1 5 1 1 6 6 5 1 1 6 1
split_gain=8397.04 2885.39 965.832 659.742 331.948 202.04 115.88 112.796 82.7321 61.0276 15.1682 5.55448
threshold=1.0000000180025095e-35 1.5000000000000002 0.75000000000000011 1.5000000000000002 1.0000000180025095e-35 7.5000000000000009 4.5000000000000009 1.5000000000000002 1.0000000180025095e-35 3.5000000000000004 2.5000000000000004 2.5000000000000004
decision_type=2 2 8 2 2 2 2 10 2 2 2 2
left_child=2 4 3 6 10 -5 -1 8 -4 -3 -2 -9
right_child=1 9 7 5 -6 -7 -8 11 -10 -11 -12 -13
leaf_value=-3.5367847689607963 -3.4869299521953794 -3.298274537249732 -3.5551677309253966 -3.4939173887480166 -3.4059429559885159 -3.4368083657077975 -3.5074829254482993 -3.5712369619832018 -3.5271638776642313 -3.2341995778785861 -3.4619560863810066 -3.5513697417772123
leaf_weight=2509.9538576658815 375.58492614515126 335.91817222908139 1954.7315937224776 747.54847135953605 391.55830404907465 318.31657654233277 597.21905365213752 1580.8310308009386 484.28249950893223 203.75180461630225 133.51385819166899 103.92521089687943
leaf_count=89409 13379 11966 69631 26629 13948 11339 21274 56312 17251 7258 4756 3702
internal_value=-3.51429 -3.38082 -3.53752 -3.51715 -3.44725 -3.47654 -3.53114 -3.5581 -3.54966 -3.27166 -3.47985 -3.57015
internal_weight=0 1440.33 8296.81 4173.04 900.657 1065.87 3107.17 4123.77 2439.01 539.67 509.099 1684.76
internal_count=346854 51307 295547 148651 32083 37968 110683 146896 86882 19224 18135 60014
is_linear=0
shrinkage=1


Tree=1
num_leaves=15
num_cat=0
split_feature=1 5 5 1 1 5 2 5 2 2 1 6 1 1
split_gain=3893.81 1107.27 1058.92 405.691 253.193 112.378 109.265 106.963 77.5343 76.4867 61.53 45.4123 18.7931 1.31277
threshold=1.5000000000000002 1.0000000180025095e-35 0.75000000000000011 3.5000000000000004 1.0000000180025095e-35 1.5000000000000002 1.5000000000000002 0.75000000000000011 1.5000000000000002 4.5000000000000009 2.5000000000000004 7.5000000000000009 2.5000000000000004 2.5000000000000004
decision_type=2 8 8 2 2 10 2 10 2 2 2 2 2 2
left_child=2 3 4 10 6 8 -1 12 -4 -6 -2 -5 -3 -9
right_child=1 7 5 11 9 -7 -8 13 -10 -11 -12 -13 -14 -15
leaf_value=-0.02681113959279819 0.062715499602672364 0.0007247865130686924 -0.042498482334727292 0.11543169911601762 0.010036421207460608 -0.056567330026234458 -0.00030442722692679112 -0.046719738691470412 -0.018522296489865548 0.037474251101609374 0.094899257412424262 0.15983967640098512 0.034880506998874052 -0.030545991797433225
leaf_weight=954.41308061592281 772.41233228892088 120.10873244702816 1524.1020300071687 286.89248517155647 1080.9935331251472 1421.8473229072988 1352.3900779150426 110.36736772581935 740.33454942889512 557.19765103235841 353.90438400954008 250.30132204294205 112.42276648618281 117.66567645967007
leaf_count=34476 25342 4186 56286 9082 38093 53352 48275 4088 27066 19480 11479 7639 3768 4242
internal_value=0 0.0716236 -0.0201349 0.0943611 0.00146563 -0.0432334 -0.0113237 -0.010543 -0.0347363 0.01948 0.0732399 0.137484 0.0178016 -0.0393887
internal_weight=0 2124.08 7631.28 1663.51 3944.99 3686.28 2306.8 460.565 2264.44 1638.19 1126.32 537.194 232.531 228.033
internal_count=346854 69826 277028 53542 140324 136704 82751 16284 83352 57573 36821 16721 7954 8330
is_linear=0
shrinkage=0.06


Tree=2
num_leaves=8
num_cat=0
split_feature=0 0 0 0 5 2 0
split_gain=12766.7 2604.41 983.012 251.304 209.596 179.699 31.0922
threshold=8.5000000000000018 3.5000000000000004 1.0000000180025095e-35 5.5000000000000009 1.0000000180025095e-35 7.5000000000000009 4.5000000000000009
decision_type=2 2 2 2 8 2 2
left_child=1 2 4 6 -1 -4 -3
right_child=-2 3 5 -5 -6 -7 -8
leaf_value=-0.018616991416975089 0.47530329806969068 0.065129084987027019 -0.0013496590597206898 0.1633945460589401 -0.044265323772309288 0.032714425332377547 0.10320371372592281
leaf_weight=1761.0663212426007 194.13794710487127 283.7859047241509 3111.865422392264 196.40360757522285 3384.7850632499903 673.59140882268548 156.24536171369255
leaf_count=62757 5410 8759 107340 5702 130516 21680 4690
internal_value=0 -0.0100801 -0.0184615 0.106701 -0.0355224 0.00473585 0.0797505
internal_weight=0 9567.74 8931.31 636.435 5145.85 3785.46 440.031
internal_count=346854 341444 322293 19151 193273 129020 13449
is_linear=0
shrinkage=0.06


Tree=3
num_leaves=10
num_cat=0
split_feature=0 0 0 0 2 4 4 4 0
split_gain=7844.87 1729.71 1008.34 406.27 406.224 308.583 114.932 85.0925 51.2117
threshold=6.5000000000000009 1.5000000000000002 11.500000000000002 3.5000000000000004 2.5000000000000004 3520.0000000000005 387.00000000000006 601.50000000000011 4.5000000000000009
decision_type=2 2 2 2 2 2 2 2 2
left_child=1 4 -2 7 6 -6 -1 -3 -5
right_child=2 3 -4 8 5 -7 -8 -9 -10
leaf_value=-0.032442231695285637 0.16394796935681694 0.022699161522808063 0.35799725509411501 0.057635628694576072 0.0020088155653064949 -0.047887126550367518 -0.056473195682397864 -0.027993111306903656 0.096198001940336619
leaf_weight=3437.9467519018799 233.66380114667118 1543.0495346151292 183.55334356427193 301.49646158143878 2190.327497722581 554.8257670737803 928.16707887873054 124.24135161563754 281.3707206454128
leaf_count=131342 5060 50035 3299 8759 76262 22190 38038 4426 7443
internal_value=0 -0.0117459 0.252647 0.034045 -0.0262548 -0.00812916 -0.0376192 0.0188242 0.0769824
internal_weight=0 9361.43 417.217 2250.16 7111.27 2745.15 4366.11 1667.29 582.867
internal_count=346854 338495 8359 70663 267832 98452 169380 54461 16202
is_linear=0
shrinkage=0.06


Tree=4
num_leaves=11
num_cat=0
split_feature=0 0 0 1 5 1 7 0 1 1
split_gain=5775.25 1082.37 981.825 310.807 206.689 213.284 157.268 133.007 42.7876 2.1744
threshold=4.5000000000000009 1.0000000180025095e-35 13.500000000000002 2.5000000000000004 0.75000000000000011 1.5000000000000002 1.0000000180025095e-35 6.5000000000000009 4.5000000000000009 1.5000000000000002
decision_type=2 2 2 2 10 2 2 2 2 2
left_child=1 4 7 6 5 -1 -3 -2 -5 -6
right_child=2 3 -4 8 9 -7 -8 -9 -10 -11
leaf_value=-0.031562571556335982 0.082778641682559398 -0.0080139390376684511 0.27228130589347438 0.030759696098617284 -0.056329077729259436 0.014358635966429667 0.020247994405631953 0.141023154766176 0.061281795451533415 -0.042091667829865939
leaf_weight=3182.1883952785283 307.2841953355819 2379.1711106989533 183.96139381825924 445.45600836910307 1094.475169306621 406.83144125714898 1003.640942029655 335.95482579246163 292.54879056289792 149.03450047411025
leaf_count=125731 7443 85108 2427 12858 47542 13732 31824 5932 7989 6268
internal_value=0 -0.0144725 0.150766 0.00810714 -0.0337239 -0.0263328 0.000376158 0.114117 0.0432463 -0.0548318
internal_weight=0 8953.35 827.2 4120.82 4832.53 3589.02 3382.81 643.239 738.005 1243.51
internal_count=346854 331052 15802 137779 193273 139463 116932 13375 20847 53810
is_linear=0
shrinkage=0.06


Tree=5
num_leaves=12
num_cat=0
split_feature=0 0 5 2 0 5 2 2 0 7 2
split_gain=4535.7 853.778 846.65 330.181 206.099 130.504 96.4747 96.2473 80.9477 68.6667 3.45912
threshold=3.5000000000000004 14.500000000000002 0.75000000000000011 2.5000000000000004 6.5000000000000009 1.5000000000000002 7.5000000000000009 1.5000000000000002 1.5000000000000002 1.0000000180025095e-35 6.5000000000000009
decision_type=2 2 8 2 2 10 2 2 2 2 2
left_child=2 4 3 8 9 7 -5 -4 -1 -2 -7
right_child=1 -3 5 6 -6 10 -8 -9 -10 -11 -12
leaf_value=-0.024903727122886646 0.030565667193592445 0.21760215928707632 -0.039440650789459041 0.0058265553941448198 0.11682924596371036 -0.054924219450055635 0.030704430439526743 -0.013049371724058975 0.0077537878441661474 0.07423385575850705 -0.038211493001327111
leaf_weight=1650.2653761804104 200.55369863286614 201.84770078957081 1338.739923896268 2300.8549154549837 406.99323343485594 1226.4707495346665 741.49880080297589 809.95207242667675 322.61664064414799 455.12781100347638 118.14767113141716
leaf_count=63503 5521 2131 56648 76868 6228 55353 22484 31646 10812 10681 4979
internal_value=0 0.105323 -0.0162498 -0.000438226 0.0830373 -0.038905 0.0119441 -0.0295653 -0.0195361 0.061273 -0.0536338
internal_weight=0 1264.52 8508.55 5015.24 1062.67 3493.31 3042.35 2148.69 1972.88 655.682 1344.62
internal_count=346854 24561 322293 173667 22430 148626 99352 88294 74315 16202 60332
is_linear=0
shrinkage=0.06


Tree=6
num_leaves=12
num_cat=0
split_feature=0 5 0 6 0 5 7 1 1 0 1
split_gain=3713.23 790.757 583.321 315.315 139.934 130.167 114.47 104.22 85.584 51.9583 8.78205
threshold=3.5000000000000004 0.75000000000000011 10.500000000000002 5.5000000000000009 1.5000000000000002 1.5000000000000002 1.0000000180025095e-35 2.5000000000000004 1.0000000180025095e-35 4.5000000000000009 2.5000000000000004
decision_type=2 8 2 2 2 10 2 2 2 2 2
left_child=1 3 6 4 -1 8 -2 -5 -3 -8 -7
right_child=2 5 -4 7 -6 10 9 -9 -10 -11 -12
leaf_value=-0.015711593469835809 0.027622794483117909 -0.034998523679595661 0.15234242174269935 0.014224032876958437 0.0094782464575621558 -0.0546540789466229 0.049515639908689388 0.052950575101253325 -0.0053674689291437266 0.087091267505358574 -0.030507066407043135
leaf_weight=2781.2131752427667 234.61231159605086 1636.0032806694508 391.75954116135836 749.39080430753529 1104.1998933572322 1190.0289689823985 217.50565462931991 378.38020351715386 453.37949802912772 536.57026754692197 87.64863757789135
leaf_count=103428 6024 70561 3841 25141 34982 56549 5204 10116 17733 9492 3783
internal_value=0 -0.01554 0.0904918 -0.000419653 -0.00853909 -0.038006 0.0652985 0.0274307 -0.028617 0.0767058 -0.0531557
internal_weight=0 8380.24 1380.45 5013.18 3885.41 3367.06 988.688 1127.77 2089.38 754.076 1277.68
internal_count=346854 322293 24561 173667 138410 148626 20720 35257 88294 14696 60332
is_linear=0
shrinkage=0.06


Tree=7
num_leaves=11
num_cat=0
split_feature=0 5 0 6 5 0 7 6 0 6
split_gain=3083.07 737.711 447.86 297.109 144.065 121.914 118.368 76.6367 67.1218 44.0884
threshold=3.5000000000000004 1.0000000180025095e-35 15.500000000000002 5.5000000000000009 1.5000000000000002 1.5000000000000002 1.0000000180025095e-35 1.0000000180025095e-35 5.5000000000000009 15.500000000000002
decision_type=2 8 2 2 10 2 2 2 2 2
left_child=1 3 6 5 7 -1 -2 -3 -8 -5
right_child=2 4 -4 9 -6 -7 8 -9 -10 -11
leaf_value=-0.014614970074498098 0.025777746587709663 -0.036349856706513049 0.15507613982574606 0.022275943994313107 -0.052663832979062027 0.0092507385618953268 0.052624554461099482 -0.013714478893253239 0.086182220420203473 0.055073994103670809
leaf_weight=2643.8611759208143 244.65627829916775 1289.4262551609427 232.36567775905132 900.05720089748502 1214.4609968606383 1080.4602506291121 398.83411219716072 950.92404330894351 609.83064504340291 179.63277493417263
leaf_count=99649 6070 57402 1860 27734 60332 33871 8522 38296 8109 5009
internal_value=0 -0.014851 0.0788968 0.000353451 -0.0359753 -0.00767692 0.0641797 -0.0268128 0.0732797 0.0280001
internal_weight=0 8258.82 1485.69 4804.01 3454.81 3724.32 1253.32 2240.35 1008.66 1079.69
internal_count=346854 322293 24561 166263 156030 133520 22701 95698 16631 32743
is_linear=0
shrinkage=0.06


Tree=8
num_leaves=12
num_cat=0
split_feature=0 5 0 1 5 0 0 2 6 1 1
split_gain=2588.82 686.755 344.762 273.163 128.716 123.646 92.3065 91.5567 67.4238 14.2677 9.76309
threshold=3.5000000000000004 0.75000000000000011 16.500000000000004 1.5000000000000002 1.5000000000000002 1.5000000000000002 6.5000000000000009 1.5000000000000002 7.5000000000000009 2.5000000000000004 2.5000000000000004
decision_type=2 8 2 2 10 2 2 2 2 2 2
left_child=1 3 6 5 7 -1 9 -3 -5 -2 -6
right_child=2 4 -4 8 10 -7 -8 -9 -10 -11 -12
leaf_value=-0.01632760196807689 0.035878116966715064 -0.036998820248642532 0.13793042283317736 0.012250263663638907 -0.053800643239169665 0.0090959645366573815 0.075746123151056208 -0.010368795445604729 0.039784686324339402 0.054694673550551756 -0.027987752992833417
leaf_weight=2575.4851781316102 477.75396984070539 1212.0389535315335 226.06886262446642 1030.4008197896183 1073.637615878135 933.36379887163639 591.13964105024934 768.60971195623279 469.47839516587555 286.00152022391558 80.963951064273715
leaf_count=100113 10893 56648 1624 30997 56549 30449 6735 31646 12108 5309 3783
internal_value=0 -0.0141817 0.0696039 -0.000381134 -0.0361798 -0.00954959 0.0577072 -0.0267381 0.0210003 0.0432888 -0.0521553
internal_weight=0 8143.98 1580.96 5008.73 3135.25 3508.85 1354.9 1980.65 1499.88 763.755 1154.6
internal_count=346854 322293 24561 173667 148626 130562 22937 88294 43105 16202 60332
is_linear=0
shrinkage=0.06


Tree=9
num_leaves=13
num_cat=0
split_feature=0 2 0 0 1 7 0 0 2 6 7 6
split_gain=2234.58 464.128 380.924 129.976 124.611 100.628 67.3393 46.1217 41.2638 36.3066 29.4445 19.594
threshold=2.5000000000000004 2.5000000000000004 9.5000000000000018 1.0000000180025095e-35 2.5000000000000004 1.0000000180025095e-35 1.0000000180025095e-35 4.5000000000000009 1.5000000000000002 8.5000000000000018 1.0000000180025095e-35 5.5000000000000009
decision_type=2 2 2 2 2 2 2 2 2 2 2 2
left_child=1 3 5 8 6 9 -3 -7 -1 -2 -5 -6
right_child=2 4 -4 10 11 7 -8 -9 -10 -11 -12 -13
leaf_value=-0.041441521910176159 0.0040705783653280994 -0.017887034957996307 0.093583020054142887 -0.01849521072177028 0.010551071044205881 0.033928201950247615 0.0011920908892220927 0.058977022396383888 -0.02465906359239459 0.036581228076908029 0.003828096999498278 0.030636781050447547
leaf_weight=2136.5166224911809 360.58850459940732 1097.4221506472677 576.14748398214579 748.17166617885232 344.39749436080456 555.42175561189651 1671.3376151043922 589.46442651003599 758.57303998433053 187.27333930321038 290.33832759037614 387.67558612301946
leaf_count=104007 10531 47002 4498 30310 10560 13640 57618 8871 34300 4653 10001 10863
internal_value=0 -0.0164445 0.0515191 -0.0305739 -0.000535645 0.036944 -0.00637356 0.0470619 -0.0371088 0.0154899 -0.0122256 0.0213803
internal_weight=0 7434.43 2268.9 3933.6 3500.83 1692.75 2768.76 1144.89 2895.09 547.862 1038.51 732.073
internal_count=346854 304661 42193 178618 126043 37695 104620 22511 138307 15184 40311 21423
is_linear=0
shrinkage=0.06


Tree=10
num_leaves=12
num_cat=0
split_feature=7 5 3 2 5 6 2 2 6 7 2
split_gain=1869.83 513.377 248.141 243.867 119.739 98.1174 68.0478 46.1689 23.9035 18.2501 3.22789
threshold=1.0000000180025095e-35 0.75000000000000011 1.0000000180025095e-35 3.5000000000000004 2.5000000000000004 7.5000000000000009 1.5000000000000002 1.5000000000000002 15.500000000000002 34031.500000000007 6.5000000000000009
decision_type=2 8 2 2 10 2 2 2 2 2 2
left_child=1 3 8 7 6 -5 -3 -1 9 -2 -6
right_child=2 4 -4 5 10 -7 -8 -9 -10 -11 -12
leaf_value=-0.02790030497793311 0.053860425528926545 -0.035893983220135255 0.10058195002281205 0.00289710369158007 -0.05353706903531813 0.031239356067842498 -0.012306386751126825 -0.0097115243311207359 0.057048633532072471 0.03286017777935106 -0.035125217449350821
leaf_weight=884.56821634620428 180.13812791183591 1121.194288816303 241.45049637928605 1464.8042856678367 952.50847896002233 626.53563695028424 746.17450683563948 1198.2232404071838 207.15949928201735 1967.194507766515 90.765268502756953
leaf_count=38047 3872 56479 5227 48476 54122 16765 31782 45363 2930 39278 4513
internal_value=0 -0.0164938 0.0429829 -0.00298517 -0.0358137 0.0114623 -0.0265492 -0.0175048 0.0368578 0.0347624 -0.0521505
internal_weight=0 7084.77 2595.94 4174.13 2910.64 2091.34 1867.37 2082.79 2354.49 2147.33 1043.27
internal_count=346854 295547 51307 148651 146896 65241 88261 83410 46080 43150 58635
is_linear=0
shrinkage=0.06


Tree=11
num_leaves=15
num_cat=0
split_feature=7 5 1 1 5 6 1 6 1 7 7 1 7 6
split_gain=1618.69 481.484 213.544 170.668 128.94 67.6842 67.4978 48.6441 23.6372 24.1218 15.4378 8.33093 2.16388 2.11906
threshold=1.0000000180025095e-35 1.0000000180025095e-35 1.5000000000000002 1.0000000180025095e-35 1.5000000000000002 1.5000000000000002 1.0000000180025095e-35 7.5000000000000009 1.5000000000000002 235242.00000000003 100070.00000000001 2.5000000000000004 406080.00000000006 2.5000000000000004
decision_type=2 8 2 2 10 2 2 2 2 2 2 2 2 2
left_child=1 2 5 10 6 -1 -3 -4 12 -10 -2 -6 -5 -12
right_child=3 4 7 8 11 -7 -8 -9 9 -11 13 -13 -14 -15
leaf_value=-0.020428566766135043 0.025169307998781774 -0.031488409173969924 0.0093419341914731096 0.040725512819193996 -0.052978076311847075 -0.001329753886896197 -0.006211487443533505 0.03399902300185112 0.061763390707485787 0.044271851338710082 0.002453616176289601 -0.027613258467224469 0.02991461217322398 0.011772008120717273
leaf_weight=1454.5354625117034 214.27938146516681 1453.2374240420759 836.99276368878782 428.38187745586038 944.13863930664957 1242.2762361709028 524.38443798571825 444.79790882393718 609.62342914752662 768.78371090441942 309.15160111151636 74.824135512113571 229.57853416353464 130.48241641558707
leaf_count=60778 6060 72388 25506 9328 56312 45190 21223 10448 8950 10274 8799 3702 4620 3276
internal_value=0 -0.0157784 -0.00207708 0.0389651 -0.0339219 -0.0116651 -0.0248398 0.0180298 0.0475226 0.0522334 0.0120939 -0.0513004 0.0372707 0.00541503
internal_weight=0 6975.19 3978.6 2690.28 2996.58 2696.81 1977.62 1281.79 2036.37 1378.41 653.913 1018.96 657.96 439.634
internal_count=346854 295547 141922 51307 153625 105968 93611 35954 33172 19224 18135 60014 13948 12075
is_linear=0
shrinkage=0.06


Tree=12
num_leaves=12
num_cat=0
split_feature=0 4 2 0 6 0 0 6 2 2 4
split_gain=1544.77 382.738 352.927 289.683 114.048 100.876 49.4965 25.1176 11.0435 7.20307 2.20765
threshold=2.5000000000000004 4165.0000000000009 1.5000000000000002 17.500000000000004 4.5000000000000009 5.5000000000000009 1.0000000180025095e-35 10.500000000000002 6.5000000000000009 3.5000000000000004 77973.000000000015
decision_type=2 2 2 2 2 2 2 2 2 2 2
left_child=1 2 6 5 -4 7 -1 -2 -7 -3 -11
right_child=3 9 4 -5 -6 8 -8 -9 -10 10 -12
leaf_value=-0.034756055229194761 0.018058049011030641 -0.053002705131296936 -0.0057721423227733906 0.10153047967787326 0.015626453405527197 0.054705305772015732 -0.012333731941062773 0.038972743265683001 0.038972651500131066 -0.032361708126804237 -0.047934714272417987
leaf_weight=1547.4111480228603 1062.1465005241334 690.58642312698066 2817.857108047232 245.78602388501167 1308.6548347417265 539.42269006371498 477.32520968466997 266.96162248216569 376.50272428616881 193.08951957151294 121.62351604551077
leaf_count=79645 25545 43198 104911 1449 40633 5725 19656 5536 3938 9583 7035
internal_value=0 -0.0146877 -0.00904979 0.0401275 0.0010146 0.0331758 -0.0295342 0.0224207 0.0485305 -0.0489282 -0.0391669
internal_weight=0 7156.55 6151.25 2490.82 4126.51 2245.03 2024.74 1329.11 915.925 1005.3 314.713
internal_count=346854 304661 244845 42193 145544 40744 99301 31081 9663 59816 16618
is_linear=0
shrinkage=0.06


Tree=13
num_leaves=13
num_cat=0
split_feature=0 5 0 2 5 0 6 2 1 2 2 1
split_gain=1342.54 404.012 234.806 152.256 133.615 82.8321 78.0175 70.8925 31.4685 26.6591 8.47431 7.43567
threshold=2.5000000000000004 1.0000000180025095e-35 17.500000000000004 2.5000000000000004 1.5000000000000002 5.5000000000000009 4.5000000000000009 1.0000000180025095e-35 4.5000000000000009 1.0000000180025095e-35 6.5000000000000009 2.5000000000000004
decision_type=2 8 2 2 10 2 2 2 2 2 2 2
left_child=1 3 5 9 7 8 -5 -3 -2 -1 -7 -6
right_child=2 4 -4 6 11 10 -8 -9 -10 -11 -12 -13
leaf_value=-0.03412323699412103 0.016582254906432458 -0.039848611271247038 0.090356643951980689 -0.0015512367820052695 -0.052093686792128065 0.049335309917261504 0.019758397199129585 -0.01462056556789358 0.042153131906277112 -0.013042590279463568 0.035594024475051098 -0.026929540661816555
leaf_weight=259.25670853070915 1148.9213853403926 581.33185344934464 259.75658938288689 1562.8545768894255 847.66773648839444 562.04395715892315 1014.4167891126126 1334.9498057663441 207.07443788088858 1387.7188841756433 387.6169989593327 69.895839957520366
leaf_count=12291 27427 32564 1449 53169 55923 5725 28401 61757 3654 56889 3938 3667
internal_value=0 -0.0140268 0.0366147 -0.00224958 -0.0315328 0.0303595 0.00684201 -0.0223795 0.0206586 -0.0164796 0.0439864 -0.0503787
internal_weight=0 7058.09 2565.41 4224.25 2833.85 2305.66 2577.27 1916.28 1356 1646.98 949.661 917.564
internal_count=346854 304661 42193 150750 153911 40744 81570 94321 31081 69180 9663 59590
is_linear=0
shrinkage=0.06


Tree=14
num_leaves=12
num_cat=0
split_feature=0 0 4 1 3 4 6 0 0 1 1
split_gain=1172.02 308.521 270.325 218.091 105.812 77.0809 69.7918 55.2736 41.7659 7.60133 0.613387
threshold=1.5000000000000002 6.5000000000000009 4165.0000000000009 1.0000000180025095e-35 1.0000000180025095e-35 387.00000000000006 1.5000000000000002 1.0000000180025095e-35 11.500000000000002 1.0000000180025095e-35 2.5000000000000004
decision_type=2 2 2 2 2 2 2 2 2 2 2
left_child=2 4 3 7 5 -2 -5 -1 -3 -4 -11
right_child=1 8 9 6 -6 -7 -8 -9 -10 10 -12
leaf_value=-0.028762907842072392 0.013569839562102722 0.039119942518220638 -0.053224283566946952 -0.010734247087402168 0.0508143316515604 -0.028003087808840182 0.011286850137067107 -0.0099246306060849429 0.064283232791945033 -0.04156667850342663 -0.027024936144117728
leaf_weight=1945.9747022809461 2365.8837197441608 501.06631214171648 571.49545683991164 871.98936089407653 258.70556172914803 167.00301813334227 1259.1275203181431 807.93320662714541 556.56986747682095 216.52263643965125 76.807765120640397
leaf_count=100671 57789 5060 39636 35142 7522 5352 41645 33002 3299 13913 3823
internal_value=0 0.0250989 -0.0176547 -0.0121414 0.0145734 0.0107625 0.00225278 -0.0232794 0.0526415 -0.0484998 -0.0384165
internal_weight=0 3849.23 5749.85 4885.02 2791.59 2532.89 2131.12 2753.91 1057.64 864.826 293.33
internal_count=346854 79022 267832 210460 70663 63141 76787 133673 8359 57372 17736
is_linear=0
shrinkage=0.06


Tree=15
num_leaves=12
num_cat=0
split_feature=0 4 2 0 6 7 0 0 6 2 4
split_gain=1039.15 328.362 284.959 170.611 82.3751 63.494 43.9987 36.8158 19.6558 8.2208 2.748
threshold=2.5000000000000004 4165.0000000000009 1.5000000000000002 18.500000000000004 4.5000000000000009 1.0000000180025095e-35 1.0000000180025095e-35 4.5000000000000009 8.5000000000000018 3.5000000000000004 77973.000000000015
decision_type=2 2 2 2 2 2 2 2 2 2 2
left_child=1 2 6 5 -4 8 -1 -7 -2 -3 -11
right_child=3 9 4 -5 -6 7 -8 -9 -10 10 -12
leaf_value=-0.032342190770561212 0.00069717387712058454 -0.051611112955670647 -0.0048876414486126608 0.077973721204829524 0.013152197398378985 0.019786094700094601 -0.010743384947811973 0.03802483688981529 0.0231619448674532 -0.029246520799755697 -0.046044969879126145
leaf_weight=1422.5912922509015 384.43104247190058 596.31224637664855 2774.8185413759202 250.39237143099308 1350.0746619775891 647.1010059826076 462.64300791732967 1186.5123807676136 219.75869182310998 174.53744046855718 106.67734528984874
leaf_count=79645 10571 43198 104911 1292 40633 13640 19656 11992 4698 9583 7035
internal_value=0 -0.0128478 -0.00781397 0.0311039 0.00101539 0.0261228 -0.0271064 0.0316824 0.00906015 -0.047037 -0.0364587
internal_weight=0 6887.65 6010.13 2688.2 4124.89 2437.8 1885.23 1833.61 604.19 877.527 281.215
internal_count=346854 304661 244845 42193 145544 40901 99301 25632 15269 59816 16618
is_linear=0
shrinkage=0.06


Tree=16
num_leaves=11
num_cat=0
split_feature=0 5 0 6 4 6 0 0 6 4
split_gain=922.838 270.693 217.009 156.948 82.9512 55.6994 41.2063 30.585 22.214 0.438813
threshold=1.5000000000000002 1.5000000000000002 6.5000000000000009 1.5000000000000002 601.50000000000011 7.5000000000000009 1.0000000180025095e-35 11.500000000000002 7.5000000000000009 10362.500000000002
decision_type=2 10 2 2 2 2 2 2 2 2
left_child=1 3 4 6 5 -2 -1 -4 -5 -3
right_child=2 9 7 8 -6 -7 -8 -9 -10 -11
leaf_value=-0.02530803685438197 0.010066707252620877 -0.037669576023445513 0.032623459514041601 -0.0022611559069817436 -0.027119649509484929 0.029727114607100966 -0.0093871839591481102 0.05352545252569807 0.011557629403092542 -0.050834080497405808
leaf_weight=1871.9045322723687 1975.0181554332376 115.7629309380427 530.39116992428899 1475.451724938117 171.4840646982193 709.6472153570503 877.00239802896976 592.41236463189125 577.71530929207802 654.54617104399949
leaf_count=99845 50833 8063 5060 57404 5771 14059 35229 3299 17568 49723
internal_value=0 -0.0162434 0.0215659 -0.0109079 0.0127188 0.0153248 -0.0202702 0.0438774 0.00162537 -0.0491656
internal_weight=0 5572.38 3978.95 4802.07 2856.15 2684.67 2748.91 1122.8 2053.17 770.309
internal_count=346854 267832 79022 210046 70663 64892 135074 8359 74972 57786
is_linear=0
shrinkage=0.06


Tree=17
num_leaves=12
num_cat=0
split_feature=7 1 3 4 4 1 1 2 7 4 2
split_gain=804.053 323.093 163.888 121.72 119.151 92.0428 83.6438 66.7535 17.9288 4.75922 4.74626
threshold=1.0000000180025095e-35 1.0000000180025095e-35 1.0000000180025095e-35 149.50000000000003 6573.5000000000009 1.0000000180025095e-35 2.5000000000000004 1.0000000180025095e-35 140034.00000000003 4165.0000000000009 2.5000000000000004
decision_type=2 2 2 2 2 2 2 2 2 2 2
left_child=1 4 5 6 7 10 -3 -1 -7 -5 -2
right_child=2 3 -4 9 -6 8 -8 -9 -10 -11 -12
leaf_value=-0.035823787723636515 -0.0060741782408806335 -0.0011297449952049161 0.067040489388007066 -0.014862528431069113 -0.052656924944979512 0.034471892279445179 0.021657209367687596 -0.014842666902205088 0.022151810801171398 -0.034283504958653989 0.004560428815317815
leaf_weight=765.15405496861786 288.99919233284891 2070.4136037202552 297.41014915890992 76.612760722637177 500.66245911642909 665.81072542816401 798.66818608902395 1978.4342503314838 1478.6903902310878 302.90523327887058 304.00261133164167
leaf_count=45945 8170 75563 5227 3007 39528 10176 19743 92362 20288 19399 7446
internal_value=0 -0.0123937 0.0249914 0.000972916 -0.0257721 0.0202938 0.0052255 -0.0207639 0.0260677 -0.0307165 -0.000559562
internal_weight=0 6492.85 3034.91 3248.6 3244.25 2737.5 2869.08 2743.59 2144.5 379.518 593.002
internal_count=346854 295547 51307 117712 177835 46080 95306 138307 30464 22406 15616
is_linear=0
shrinkage=0.06


Tree=18
num_leaves=11
num_cat=0
split_feature=5 5 2 6 2 3 6 4 2 4
split_gain=671.892 135.809 106.607 84.0035 70.3412 64.7643 25.862 16.7861 7.1873 1.71894
threshold=1.0000000180025095e-35 1.5000000000000002 1.0000000180025095e-35 7.5000000000000009 1.0000000180025095e-35 1.0000000180025095e-35 23.500000000000004 6573.5000000000009 3.5000000000000004 31892.500000000004
decision_type=8 10 2 2 2 2 2 2 2 2
left_child=2 4 -1 5 -2 -4 -5 -6 -3 -10
right_child=1 8 3 6 7 -7 -8 -9 9 -11
leaf_value=-0.030147433667690515 -0.036239542009810714 -0.050993231376189441 0.0043152933233784408 0.020359833562898111 -0.0080095783019425125 0.022650038489527281 0.044489185838525139 -0.031271874280412247 -0.024776816145290387 -0.040734092334891496
leaf_weight=228.66707704402506 499.47664863802493 541.18721256125718 4221.9959615450352 1310.1785490680486 1321.8002522960305 828.48218891210854 187.65523897483945 119.91118779405951 90.309692498296499 160.25787465367466
leaf_count=12358 32588 44857 117492 25578 60705 30048 2818 4156 5514 10740
internal_value=0 -0.0255558 0.00965892 0.0110773 -0.0169045 0.00735067 0.0235488 -0.0100748 -0.0464747 -0.0357444
internal_weight=0 2732.94 6776.98 6548.31 1941.19 5050.48 1497.83 1441.71 791.755 250.568
internal_count=346854 158560 188294 175936 97449 147540 28396 64861 61111 16254
is_linear=0
shrinkage=0.06


Tree=19
num_leaves=12
num_cat=0
split_feature=0 5 0 2 0 1 6 2 6 1 1
split_gain=697.5 230.331 188.737 175.581 87.4815 55.6281 39.484 21.3518 13.0691 7.67361 0.371114
threshold=1.5000000000000002 1.5000000000000002 20.500000000000004 1.5000000000000002 4.5000000000000009 2.5000000000000004 15.500000000000002 1.0000000180025095e-35 6.5000000000000009 2.5000000000000004 1.0000000180025095e-35
decision_type=2 10 2 2 2 2 2 2 2 2 2
left_child=1 3 4 7 6 -5 -2 -1 -6 10 -3
right_child=2 9 -4 5 8 -7 -8 -9 -10 -11 -12
leaf_value=-0.033971892841019938 0.0056760687245247573 -0.052132902302525291 0.07187476126902477 -0.0050221940971818388 0.031073328834793874 0.016886248177804059 0.034243582823282263 -0.01963561891081976 0.018802260233281402 -0.021105280885754911 -0.040211662019689724
leaf_weight=692.21412872429937 2236.5749638210982 456.00015114434063 218.20795598626137 2590.0573920635507 915.33159881085157 491.8226509001106 185.25822214782238 937.22377946972847 560.98247945681214 53.354713125154376 163.72045078873634
leaf_count=44442 59407 40761 1043 102695 9154 12977 3813 49932 5605 3459 13566
internal_value=0 -0.0146673 0.0181224 -0.00993831 0.0150145 -0.00149063 0.0079447 -0.0258369 0.026518 -0.0473891 -0.0493978
internal_weight=0 5384.39 4116.36 4711.32 3898.15 3081.88 2421.83 1629.44 1476.31 673.075 619.721
internal_count=346854 267832 79022 210046 77979 115672 63220 94374 14759 57786 54327
is_linear=0
shrinkage=0.06


Tree=20
num_leaves=11
num_cat=0
split_feature=0 5 2 0 0 3 2 2 0 2
split_gain=617.409 219.296 161.196 161.085 76.4608 54.5171 34.8416 20.4673 10.4928 4.40575
threshold=1.5000000000000002 1.5000000000000002 1.5000000000000002 20.500000000000004 3.5000000000000004 1.0000000180025095e-35 3.5000000000000004 1.0000000180025095e-35 7.5000000000000009 2.5000000000000004
decision_type=2 10 2 2 2 2 2 2 2 2
left_child=1 2 7 4 5 -2 -4 -1 -6 -3
right_child=3 9 6 -5 8 -7 -8 -9 -10 -11
leaf_value=-0.033042997868428126 0.0020313287746585467 -0.051861816405724938 -0.0080500506621725976 0.065810364372362401 0.0183904294490994 0.033759308887451878 0.0047030047724635699 -0.018824746038784604 0.027776115156546419 -0.037868161971763896
leaf_weight=669.80835272930562 1763.3354161959141 389.27253745868802 1475.9293910926208 224.27695946395397 1157.6836776174605 214.90077830664814 1601.331747289747 919.70409941207618 807.46855464577675 253.7622405430302
leaf_count=44442 48067 36888 61951 1043 17914 6394 53721 49932 5604 20898
internal_value=0 -0.014007 -0.00944266 0.0168291 0.0139528 0.00557562 -0.00140318 -0.0249274 0.022329 -0.0467391
internal_weight=0 5309.81 4666.77 4167.67 3943.39 1978.24 3077.26 1589.51 1965.15 643.035
internal_count=346854 267832 210046 79022 77979 54461 115672 94374 23518 57786
is_linear=0
shrinkage=0.06


Tree=21
num_leaves=13
num_cat=0
split_feature=7 5 2 6 1 2 7 2 7 1 1 7
split_gain=545.603 249.72 195.364 57.5815 51.3876 38.7388 21.528 22.0628 13.1181 11.3753 3.06974 0.81365
threshold=1.0000000180025095e-35 0.75000000000000011 2.5000000000000004 4.5000000000000009 1.0000000180025095e-35 1.0000000180025095e-35 95031.000000000015 2.5000000000000004 100070.00000000001 2.5000000000000004 1.0000000180025095e-35 299999.50000000006
decision_type=2 10 2 2 2 2 2 2 2 2 2 2
left_child=1 2 5 -4 8 -1 -6 -8 -2 10 -3 -10
right_child=4 9 3 -5 6 -7 7 -9 11 -11 -12 -13
leaf_value=-0.031738672469668383 0.016856491537294235 -0.050867370363980716 -0.0039219399565871699 0.012322627735741372 0.03403144716932531 -0.014527033215484229 0.034241532135802631 0.017283554521163664 0.0026247865293829199 -0.017108997196652737 -0.036748612629050936 -0.002370045338197839
leaf_weight=658.60420860257 234.8230778798461 446.13159002363682 1749.3777293376625 1414.6768306978047 592.51445986330509 1762.7216945579275 351.85651769302785 1529.1191076058894 189.59491303469986 61.608482751995325 178.90012137126178 284.37284186389297
leaf_count=44812 6060 42611 63427 38006 8438 87768 4695 20039 4948 3951 14972 7127
internal_value=0 -0.0106964 -0.00647006 0.00333588 0.0197856 -0.0192817 0.0238664 0.0205604 0.00541828 -0.0447191 -0.0472166 -0.000277799
internal_weight=0 6272.02 5585.38 3164.05 3182.28 2421.33 2473.49 1880.98 708.791 686.64 625.032 473.968
internal_count=346854 295547 234013 101433 51307 132580 33172 24734 18135 61534 57583 12075
is_linear=0
shrinkage=0.06


Tree=22
num_leaves=11
num_cat=0
split_feature=0 4 0 1 4 0 0 1 1 1
split_gain=491.912 181.842 134.681 128.828 101.316 73.4552 37.2501 37.0414 8.66781 1.02043
threshold=1.5000000000000002 6029.5000000000009 21.500000000000004 1.0000000180025095e-35 1020.0000000000001 3.5000000000000004 1.0000000180025095e-35 2.5000000000000004 1.0000000180025095e-35 2.5000000000000004
decision_type=2 2 2 2 2 2 2 2 2 2
left_child=1 3 4 6 5 -2 -1 -5 -3 -10
right_child=2 8 -4 7 -6 -7 -8 -9 9 -11
leaf_value=-0.023188647409919289 0.006014546807889965 -0.050139013711412779 0.061350377311156445 -0.0023819583186461216 -0.028306487171291882 0.022653454472927395 -0.0070852416644445991 0.016191212571058926 -0.035847159665857393 -0.020036578581768206
leaf_weight=1676.4461344508454 1907.7473344849423 377.22197223734111 207.32471194863319 1648.9767313534394 205.52719625085592 1935.5752280652523 767.57123953010887 498.74807515367866 153.34200500883162 58.916471871547401
leaf_count=101667 50217 38497 934 64521 5952 21919 33145 12959 13390 3653
internal_value=0 -0.0128295 0.0146847 -0.00876484 0.012212 0.0144237 -0.0181731 0.00193921 -0.0440805 -0.0322141
internal_weight=0 5181.22 4256.17 4591.74 4048.85 3843.32 2444.02 2147.72 589.48 212.258
internal_count=346854 267832 79022 212292 78088 72136 134812 77480 55540 17043
is_linear=0
shrinkage=0.06


Tree=23
num_leaves=12
num_cat=0
split_feature=7 1 3 4 4 6 1 6 7 1 6
split_gain=430.806 211.028 120.04 98.2722 74.7171 56.8891 52.3232 19.9144 14.6827 4.31844 2.92592
threshold=1.0000000180025095e-35 1.0000000180025095e-35 1.0000000180025095e-35 8082.0000000000009 149.50000000000003 4.5000000000000009 1.0000000180025095e-35 1.5000000000000002 140034.00000000003 3.5000000000000004 2.5000000000000004
decision_type=2 2 2 2 2 2 2 2 2 2 2
left_child=1 3 6 7 5 -3 10 -1 -8 -6 -2
right_child=2 4 -4 -5 9 -7 8 -9 -10 -11 -12
leaf_value=-0.021085336838108048 -0.0052029745075435714 -0.0032438183983672518 0.051184633297006052 -0.05027617643653709 -0.029389182875410994 0.013685752524126096 0.024530601386916446 -0.0096994158779785244 0.01398916035470189 -0.0092444118953613555 0.0035791754106985086
leaf_weight=1653.6476581832394 414.79286698251963 1706.4006833080202 332.25383022613823 370.21559645328671 270.89089502952993 1219.2366984328255 727.42577881552279 876.24721504747868 1593.5270976070315 58.919002625159919 192.60002223029733
leaf_count=100612 11317 64185 5227 38755 19497 31121 10176 38468 20288 2909 4299
internal_value=0 -0.00974735 0.0172091 -0.0215032 0.000729356 0.00380843 0.0132593 -0.0171852 0.0173567 -0.0261077 -0.00234315
internal_weight=0 6155.56 3260.6 2900.11 3255.45 2925.64 2928.35 2529.89 2320.95 329.81 607.393
internal_count=346854 295547 51307 177835 117712 95306 46080 139080 30464 22406 15616
is_linear=0
shrinkage=0.06


Tree=24
num_leaves=12
num_cat=0
split_feature=7 2 3 4 4 1 1 2 2 1 2
split_gain=379.536 197.03 99.7863 99.7002 78.6952 45.2804 43.6111 35.4507 13.742 4.25493 3.3475
threshold=1.0000000180025095e-35 2.5000000000000004 1.0000000180025095e-35 4165.0000000000009 70.500000000000014 1.0000000180025095e-35 3.5000000000000004 1.0000000180025095e-35 2.5000000000000004 1.0000000180025095e-35 2.5000000000000004
decision_type=2 2 2 2 2 2 2 2 2 2 2
left_child=1 4 5 6 7 10 -3 -1 -7 -5 -2
right_child=2 3 -4 9 -6 8 -8 -9 -10 -11 -12
leaf_value=-0.029663580559749578 -0.0068155283934982257 0.0002116427261017498 0.046341013989040516 -0.042311293439894523 -0.047029652565284401 0.026267051976880135 0.01914177627138541 -0.012625503461804431 0.01389485123008252 -0.02476590684868225 0.0019763704191051784
leaf_weight=610.07815389242023 291.49515217635781 2619.3811088502407 345.06262569315732 117.75652134139091 373.07702438812703 407.57492655329406 522.29230725765228 1667.9726866418496 1942.980500144884 187.82691003847867 314.58012597262859
leaf_count=44718 8170 89505 5227 11073 39406 5545 11290 86245 24919 13310 7446
internal_value=0 -0.00926587 0.015974 0.000184581 -0.0215473 0.0123435 0.00339747 -0.0172618 0.0161092 -0.0322346 -0.00220458
internal_weight=0 6098.38 3301.69 3447.26 2651.13 2956.63 3141.67 2278.05 2350.56 305.583 606.075
internal_count=346854 295547 51307 125178 170369 46080 100795 130963 30464 24383 15616
is_linear=0
shrinkage=0.06


Tree=25
num_leaves=15
num_cat=0
split_feature=5 7 4 2 1 7 1 1 2 2 1 4 5 1
split_gain=367.92 154.399 108.815 73.1374 58.6017 30.4306 27.675 21.6024 20.029 13.5769 10.2616 7.90496 1.42263 1.23459
threshold=1.0000000180025095e-35 1.0000000180025095e-35 6029.5000000000009 3.5000000000000004 1.0000000180025095e-35 30737.500000000004 1.0000000180025095e-35 3.5000000000000004 1.0000000180025095e-35 1.5000000000000002 1.0000000180025095e-35 149.50000000000003 2.5000000000000004 3.5000000000000004
decision_type=8 2 2 2 2 2 2 2 2 2 2 2 8 2
left_child=1 3 4 9 8 -3 -7 -5 -2 -1 12 -6 -4 -12
right_child=2 5 10 7 11 6 -8 -9 -10 -11 13 -13 -14 -15
leaf_value=-0.017243631651887626 -0.03110933175935976 0.037382701679979612 -0.026397875194199075 0.002835552884765107 0.0063602072231990214 0.0031414252136081891 0.017873573914312085 0.017378684994647602 -0.01433259399269564 -0.0062168429629799694 -0.034208961566846961 -0.010329226233248934 -0.050539158277459646 -0.019176666270799031
leaf_weight=658.69485412910581 417.30342980660498 234.71764166839421 35.076354281045496 1695.7639506943524 460.67626090720296 588.68522923253477 2247.4210767894983 469.41950388439 741.49735560920089 1092.6687384396791 222.80459318403155 124.76586352847517 331.33188344817609 63.365795215591788
leaf_count=36847 33592 3592 2057 52057 18458 14846 27934 9437 42535 43581 16841 4179 38222 2676
internal_value=0 0.00657402 -0.0206449 -0.00131559 -0.012724 0.0166359 0.0148413 0.00604068 -0.020518 -0.0104253 -0.0414944 0.00267497 -0.0487277 -0.0314111
internal_weight=0 6987.37 2396.82 3916.55 1744.24 3070.82 2836.11 2165.18 1158.8 1751.36 652.579 585.442 366.408 286.17
internal_count=346854 188294 158560 141922 98764 46372 42780 61494 76127 80428 59796 22637 40279 19517
is_linear=0
shrinkage=0.06


Tree=26
num_leaves=11
num_cat=0
split_feature=0 0 4 4 0 1 1 6 4 1
split_gain=330.238 137.157 102.632 89.1292 91.7267 73.1209 17.9983 8.72958 4.85337 4.46336
threshold=1.0000000180025095e-35 23.500000000000004 10362.500000000002 1020.0000000000001 3.5000000000000004 1.0000000180025095e-35 2.5000000000000004 1.5000000000000002 52258.000000000007 1.0000000180025095e-35
decision_type=2 2 2 2 2 2 2 2 2 2
left_child=2 3 5 4 -2 7 -7 -1 -5 -4
right_child=1 -3 9 8 -6 6 -8 -9 -10 -11
leaf_value=-0.023051075107804006 0.0019447670107034173 0.058810118056660712 -0.050157819581750945 -0.020050924700719484 0.017642495260867797 -0.0040372277166697713 0.015040575658650333 -0.012222668482086212 -0.039276751653274079 -0.032407988669659889
leaf_weight=1178.1547026224434 3810.6533047650009 176.69858102500439 266.48857296956703 207.0063740350306 2069.216857559979 820.35955743584782 221.96058083605021 397.36262329854071 83.249426145106554 138.80029158480465
leaf_count=82251 118202 767 33817 7348 22083 36164 6268 21204 5181 13569
internal_value=0 0.00739686 -0.0166813 0.00587127 0.00748647 -0.0122583 3.76707e-05 -0.0203939 -0.0262792 -0.0446504
internal_weight=0 6346.82 3023.13 6170.13 5879.87 2617.84 1042.32 1575.52 290.256 405.289
internal_count=346854 153581 193273 152814 140285 145887 42432 103455 12529 47386
is_linear=0
shrinkage=0.06


Tree=27
num_leaves=13
num_cat=0
split_feature=5 7 4 2 2 6 7 2 2 7 2 4
split_gain=300.376 119.348 99.01 60.9775 46.6231 28.7002 25.8281 17.2009 11.5968 9.55395 6.46665 1.66462
threshold=1.0000000180025095e-35 1.0000000180025095e-35 6029.5000000000009 3.5000000000000004 1.0000000180025095e-35 7.5000000000000009 30737.500000000004 2.5000000000000004 1.5000000000000002 235242.00000000003 1.5000000000000002 52258.000000000007
decision_type=8 2 2 2 2 2 2 2 2 2 2 2
left_child=1 3 4 8 -2 -5 -3 -6 -1 -8 -4 -12
right_child=2 6 10 5 7 -7 9 -9 -10 -11 11 -13
leaf_value=-0.016028755457459649 -0.029536373960449416 0.033257235983031978 -0.050385209935558388 0.00057346059893620784 -0.012414197463499194 0.015197044672703401 0.016933868336533205 0.0012932082807848267 -0.0057288243689248321 0.0097782075850292253 -0.028052749374147611 -0.039839249206668592
leaf_weight=641.21597610320896 396.52615637984127 243.62101431749761 192.80160307511687 1460.5716705918312 703.21488872542977 722.0661271456629 1229.2963573522866 605.38175364769995 1083.2766036354005 1660.3420825954527 209.80070790601894 202.74189166445285
leaf_count=36847 33592 3592 25105 46175 41529 15319 19410 23643 43581 23370 14692 19999
internal_value=0 0.00579599 -0.0191134 -0.00119139 -0.0116145 0.00545415 0.0145106 -0.00606013 -0.00961819 0.0128608 -0.0398993 -0.0343535
internal_weight=0 7040.39 2310.47 3907.13 1705.12 2182.64 3133.26 1308.6 1724.49 2889.64 605.344 412.543
internal_count=346854 188294 158560 141922 98764 61494 46372 65172 80428 42780 59796 34691
is_linear=0
shrinkage=0.06


Tree=28
num_leaves=11
num_cat=0
split_feature=0 0 4 3 0 1 1 1 6 1
split_gain=267.935 117.604 93.1297 74.8423 81.0054 63.5049 36.0641 15.1073 7.49238 4.88671
threshold=1.0000000180025095e-35 23.500000000000004 10362.500000000002 1.0000000180025095e-35 4.5000000000000009 1.0000000180025095e-35 1.5000000000000002 1.5000000000000002 1.5000000000000002 1.0000000180025095e-35
decision_type=2 2 2 2 2 2 2 2 2 2
left_child=2 3 5 4 -2 8 -5 -7 -1 -4
right_child=1 -3 9 6 -6 7 -8 -9 -10 -11
leaf_value=-0.021517746005999341 -0.0023550848172813727 0.053716968484956086 -0.04913027722209893 0.013388938001430798 0.013889002908647457 -0.0060414294659418789 0.040472429060171101 0.0084887170152780286 -0.011347164531936913 -0.030470677080448341
leaf_weight=1133.0683221095242 3768.8514950810932 179.86848212778568 242.85185376275331 650.02408620808274 1556.5254136901349 590.98021903447807 247.82039262633771 448.44697945471853 390.44623272446916 129.76094174385071
leaf_count=82251 110363 767 33817 23783 13836 27954 4832 14478 21204 13569
internal_value=0 0.00652569 -0.0153497 0.00511296 0.00239351 -0.0112032 0.0210937 0.000197822 -0.0189844 -0.0432329
internal_weight=0 6403.09 2935.55 6223.22 5325.38 2562.94 897.844 1039.43 1523.51 372.613
internal_count=346854 153581 193273 152814 124199 145887 28615 42432 103455 47386
is_linear=0
shrinkage=0.06


Tree=29
num_leaves=12
num_cat=0
split_feature=0 0 1 3 0 7 3 1 1 6 6
split_gain=239.7 103.252 71.6689 65.6582 71.894 41.2383 13.1906 19.6654 7.40469 2.41072 1.5885
threshold=1.0000000180025095e-35 24.500000000000004 1.0000000180025095e-35 1.0000000180025095e-35 3.5000000000000004 1.0000000180025095e-35 1.0000000180025095e-35 2.5000000000000004 1.5000000000000002 1.5000000000000002 10.500000000000002
decision_type=2 2 2 2 2 2 2 2 2 2 2
left_child=2 3 9 4 -2 -5 8 -8 -4 -1 -11
right_child=1 -3 6 5 -6 -7 7 -9 -10 10 -12
leaf_value=-0.024053894943137703 -0.0031922655016222035 0.052357682866556773 -0.015672455628101222 0.0094605511410239384 0.011093824214287784 0.035844061427564987 -0.0019541266014063826 0.026174310894333804 -0.0021797839493796199 -0.016096878416112608 -0.028638666759401864
leaf_weight=1238.09822890535 3293.393090759404 164.47516188025475 310.03342354530469 568.97834385931492 2053.1075526364148 347.51307622902095 457.58008683240041 105.48916495777667 292.41867306362838 429.84090739255771 59.285588211845607
leaf_count=101450 102214 693 16871 23491 22048 5135 24413 4121 10596 31218 4604
internal_value=0 0.00611366 -0.0146692 0.00485173 0.00229112 0.0196504 -0.0031094 0.00342571 -0.00926436 -0.0224139 -0.0179764
internal_weight=0 6427.47 2892.75 6262.99 5346.5 916.491 1165.52 563.069 602.452 1727.22 489.126
internal_count=346854 153581 193273 152888 124262 28626 56001 28534 27467 137272 35822
is_linear=0
shrinkage=0.06


Tree=30
num_leaves=11
num_cat=0
split_feature=4 0 6 0 1 0 1 0 0 1
split_gain=232.391 178.599 82.2619 45.429 31.2404 18.2213 12.1979 11.0251 1.38487 4.31641
threshold=6029.5000000000009 2.5000000000000004 1.5000000000000002 17.500000000000004 1.0000000180025095e-35 1.0000000180025095e-35 1.0000000180025095e-35 5.5000000000000009 3.5000000000000004 3.5000000000000004
decision_type=2 2 2 2 2 2 2 2 2 2
left_child=1 2 5 7 -4 -1 -2 -3 9 -8
right_child=6 3 4 -5 -6 -7 8 -9 -10 -11
leaf_value=-0.016097894576818948 -0.045763038729049924 0.0076838579274745066 -0.0064604407371951292 0.034564164838295192 0.007064185304510767 -0.0062417160712940623 -0.026691973050645319 0.015474458489794618 -0.037579906257848746 -0.0031823382519565132
leaf_weight=1495.6145521285944 306.47974531259388 1555.7852266021073 882.4324074825272 332.99531517922878 1985.1239452008158 1279.6960916565731 170.59391464246437 1198.2220082655549 55.312690014019608 40.223123068921268
leaf_count=101631 40400 29223 39410 1430 57492 48304 16413 9242 859 2450
internal_value=0 0.0021116 -0.00423028 0.0137059 0.00288363 -0.0115877 -0.0371837 0.0111105 -0.026487 -0.0225787
internal_weight=0 8729.87 5642.87 3087 2867.56 2775.31 572.609 2754.01 266.13 210.817
internal_count=346854 286732 246837 39895 96902 149935 60122 38465 19722 18863
is_linear=0
shrinkage=0.06


Tree=31
num_leaves=13
num_cat=0
split_feature=5 4 1 2 2 1 6 1 6 2 5 1
split_gain=221.714 85.2482 76.9535 36.817 19.4507 15.2275 15.1098 9.94404 9.86024 7.80538 2.71032 1.20315
threshold=1.0000000180025095e-35 6029.5000000000009 1.5000000000000002 1.0000000180025095e-35 1.0000000180025095e-35 1.0000000180025095e-35 9.5000000000000018 1.0000000180025095e-35 17.500000000000004 2.5000000000000004 1.5000000000000002 3.5000000000000004
decision_type=8 2 2 2 2 2 2 2 2 2 10 2
left_child=2 3 4 -2 -1 -5 -6 10 9 -4 -3 -9
right_child=1 7 8 5 6 -7 -8 11 -10 -11 -12 -13
leaf_value=-0.020204879212368604 -0.026797040261889987 -0.018876710825535735 0.019498750095320001 -0.011210750760613461 -0.0010886958747962593 0.0018007045262295545 0.012469234686128003 -0.030160105710144228 0.021405345427999451 0.0093215615092121801 -0.047718941989506172 -0.015583914982171375
leaf_weight=173.11392461042851 364.73213585093617 26.893212827853858 315.85823308117688 695.19392117206007 3384.9021053053439 591.21173276379704 319.17434547189623 194.43001783359796 344.83668855018914 2551.7844647243619 264.22249273117632 58.523760338313878
leaf_count=12358 33592 1750 5479 42535 114686 22637 7708 16841 4167 43896 38529 2676
internal_value=0 -0.0169555 0.00484488 -0.0100739 -0.000836419 -0.00521455 8.348e-05 -0.0374813 0.0117054 0.0104891 -0.0455601 -0.027318
internal_weight=0 2195.21 7089.67 1651.14 3877.19 1286.41 3704.08 544.069 3212.48 2867.64 291.116 252.954
internal_count=346854 158560 188294 98764 134752 65172 122394 59796 53542 49375 40279 19517
is_linear=0
shrinkage=0.06


Tree=32
num_leaves=10
num_cat=0
split_feature=5 7 2 3 6 2 7 2 2
split_gain=200.206 114.235 80.4959 69.0897 29.2068 21.6868 15.6852 8.59526 1.52684
threshold=1.5000000000000002 1.0000000180025095e-35 2.5000000000000004 1.0000000180025095e-35 4.5000000000000009 1.0000000180025095e-35 31609.500000000004 2.5000000000000004 6.5000000000000009
decision_type=10 2 2 2 2 2 2 2 2
left_child=1 2 5 6 -4 -1 -3 -2 -9
right_child=7 3 4 -5 -6 -7 -8 8 -10
leaf_value=-0.023539785125377671 -0.045760804126861288 0.02185122073906581 -0.0030616557995151628 0.034497353958641355 0.008358555001059257 -0.0092671291678439287 0.0059783396044745668 -0.031485205478976354 -0.016730675996824634
leaf_weight=515.77245937101543 252.73027529893443 242.39717053063214 1729.4274592353031 373.9634100291878 1497.0346439471468 1589.5296414950863 2837.2614149227738 165.38922872487456 71.621037106495351
leaf_count=44892 37604 3570 63833 5072 38707 88101 41568 18171 5336
internal_value=0 0.00178379 -0.00371629 0.0102802 0.0022289 -0.0128311 0.00727469 -0.0374431 -0.0276379
internal_weight=0 8785.39 5331.76 3453.62 3226.46 2105.3 3079.66 489.741 237.01
internal_count=346854 285743 235533 50210 102540 132993 45138 61111 23507
is_linear=0
shrinkage=0.06


Tree=33
num_leaves=12
num_cat=0
split_feature=1 0 0 0 2 2 0 7 7 2 2
split_gain=166.514 80.74 61.1316 35.2202 27.3268 20.4126 8.08436 6.88129 8.10404 4.17696 1.77487
threshold=1.0000000180025095e-35 24.500000000000004 1.0000000180025095e-35 2.5000000000000004 7.5000000000000009 1.0000000180025095e-35 10.500000000000002 1.0000000180025095e-35 100070.00000000001 1.5000000000000002 1.5000000000000002
decision_type=2 2 2 2 2 2 2 2 2 2 2
left_child=2 3 5 4 -2 -1 -5 10 -9 -7 -4
right_child=1 -3 7 6 -6 9 -8 8 -10 -11 -12
leaf_value=-0.029548051669565058 -0.0025091056809049424 0.046889613666515062 -0.0017532328364754594 0.007814218581375848 0.011000226900881713 -0.019296148714938559 0.016107105374333491 0.009753489971438779 -0.003276859220077223 -0.011276075759725142 -0.0081949048811653276
leaf_weight=510.07833926286548 2598.7552321185358 161.11552526056767 228.12904872000217 2026.9232323793694 674.57101336680353 458.90883718943223 559.39799492806196 255.95817703567445 493.46371447388083 639.35862542083487 657.51289387186989
leaf_count=53245 100364 663 13322 29213 17841 39759 2803 6060 12075 44268 27241
internal_value=0 0.00560662 -0.0112459 0.00442534 0.000274634 -0.0195377 0.00965172 -0.00302921 0.00115301 -0.0147376 -0.00660193
internal_weight=0 6020.76 3243.41 5859.65 3273.33 1608.35 2586.32 1635.06 749.422 1098.27 885.642
internal_count=346854 150884 195970 150221 118205 137272 32016 58698 18135 84027 40563
is_linear=0
shrinkage=0.06


Tree=34
num_leaves=10
num_cat=0
split_feature=5 7 2 3 6 2 7 2 2
split_gain=180.3 88.3378 65.8713 58.6632 24.5633 18.1435 14.3647 8.47652 2.42148
threshold=1.5000000000000002 1.0000000180025095e-35 2.5000000000000004 1.0000000180025095e-35 4.5000000000000009 1.0000000180025095e-35 31023.500000000004 1.5000000000000002 6.5000000000000009
decision_type=10 2 2 2 2 2 2 2 2
left_child=1 2 5 6 -4 -1 -3 -2 -9
right_child=7 3 4 -5 -6 -7 -8 8 -10
leaf_value=-0.021688303659029465 -0.04837414702703418 0.020267152382597499 -0.0027753784609274527 0.031050415874910253 0.0076832839924812664 -0.0083622100788813547 0.0050586945620479107 -0.032491885335816317 -0.016182463473856656
leaf_weight=491.4865188174881 162.25354060996324 241.12666004523635 1721.1484564915299 384.45379903167486 1510.5471700523049 1562.7421222832054 2868.0256478842348 235.19832649594173 70.716127107385546
leaf_count=44892 26965 3432 63833 5072 38707 88101 41706 28810 5336
internal_value=0 0.00166095 -0.00322554 0.00906039 0.00210451 -0.0116159 0.0062823 -0.0363603 -0.0291777
internal_weight=0 8779.53 5285.92 3493.61 3231.7 2054.23 3109.15 468.168 305.914
internal_count=346854 285743 235533 50210 102540 132993 45138 61111 34146
is_linear=0
shrinkage=0.06


Tree=35
num_leaves=10
num_cat=0
split_feature=5 7 2 3 6 2 7 2 2
split_gain=165.78 77.8684 59.0555 49.7028 22.2173 16.7451 13.0764 9.80832 0.770794
threshold=0.75000000000000011 1.0000000180025095e-35 2.5000000000000004 1.0000000180025095e-35 4.5000000000000009 1.0000000180025095e-35 32146.000000000004 2.5000000000000004 6.5000000000000009
decision_type=10 2 2 2 2 2 2 2 2
left_child=1 2 5 6 -4 -1 -3 -2 -9
right_child=7 3 4 -5 -6 -7 -8 8 -10
leaf_value=-0.020789824260689406 -0.043348464406373084 0.018855902653676627 -0.0025963175889288231 0.028611753300546983 0.0073692998041433033 -0.0078610461071412108 0.0047781365353935486 -0.027908010557576846 -0.01655022075591701
leaf_weight=480.48406457854435 234.25686408858746 258.16972638294101 1709.9233096241951 391.50921198539436 1507.9799563325942 1546.0249357698485 2851.3741322830319 171.26489780470729 86.646706877741963
leaf_count=44812 38055 3674 63427 5055 38006 87768 41186 18909 5962
internal_value=0 0.00164181 -0.00297761 0.00856783 0.00206494 -0.0109907 0.00598882 -0.0339752 -0.0246394
internal_weight=0 8745.47 5244.41 3501.05 3217.9 2026.51 3109.54 492.168 257.912
internal_count=346854 283928 234013 49915 101433 132580 44860 62926 24871
is_linear=0
shrinkage=0.06


Tree=36
num_leaves=10
num_cat=0
split_feature=5 0 6 0 2 1 1 2 1
split_gain=152.412 91.8402 53.8871 28.7111 27.7794 19.2952 15.0724 6.2793 3.24545
threshold=1.5000000000000002 3.5000000000000004 2.5000000000000004 16.500000000000004 1.0000000180025095e-35 4.5000000000000009 2.5000000000000004 7.5000000000000009 1.0000000180025095e-35
decision_type=10 2 2 2 2 2 2 2 2
left_child=1 2 4 7 -1 -4 8 -3 -2
right_child=6 3 5 -5 -6 -7 -8 -9 -10
leaf_value=-0.021003839498445104 -0.043627814880143952 0.010768074115986225 0.0018471676742256168 0.026401729734349445 -0.0052047956413016731 0.016483764970598079 -0.0038089097772945326 0.0036707163223793169 -0.027750451878061896
leaf_weight=460.5982343419455 253.36141859646887 1396.9958581421524 2421.7689252491109 379.21020264923573 3058.5927965990268 371.7019475903362 54.43685891572386 701.58830225467682 129.71952557656914
leaf_count=43965 42405 14798 76303 1614 134847 6846 3912 7370 14794
internal_value=0 0.00146504 -0.00237281 0.0112447 -0.00731139 0.00383571 -0.0346216 0.00842965 -0.0387864
internal_weight=0 8790.46 6312.66 2477.79 3519.19 2793.47 437.518 2098.58 383.081
internal_count=346854 285743 261961 23782 178812 83149 61111 22168 57199
is_linear=0
shrinkage=0.06


Tree=37
num_leaves=14
num_cat=0
split_feature=4 1 3 5 5 6 1 5 6 6 5 1 4
split_gain=147.362 87.9845 32.0372 28.9734 19.1921 14.3518 13.1811 6.47971 4.20629 3.19419 1.77992 3.54171 0.763165
threshold=1020.0000000000001 1.0000000180025095e-35 1.0000000180025095e-35 0.75000000000000011 5.5000000000000009 15.500000000000002 1.0000000180025095e-35 1.5000000000000002 1.0000000180025095e-35 6.5000000000000009 0.75000000000000011 3.5000000000000004 10362.500000000002
decision_type=2 2 2 8 8 2 2 8 2 2 8 2 2
left_child=1 4 5 -4 9 -3 7 -2 -6 -1 -8 -12 -9
right_child=6 2 3 -5 8 -7 10 12 -10 -11 11 -13 -14
leaf_value=-0.0043014177202922816 -0.015835560001363956 0.0028009381198624717 0.023834628811590635 0.0032302670996355622 -0.017256698557631116 0.013671956716117378 -0.012942222175438837 -0.021931536648782425 -0.008380549748376525 0.0029596746842162581 -0.02781607820710072 -0.0047697926759580232 -0.044751886387276764
leaf_weight=1703.6920397412032 53.354866116773337 4216.2537088254467 617.45744273811579 417.3475617300719 563.51389259006828 487.00588640384376 141.99737513717264 28.787651205435395 351.91920283157378 239.36975916475058 152.69003041973338 36.525150914676487 203.64109887974337
leaf_count=73756 3005 88736 16000 17033 49827 6190 4097 3998 21444 6883 16506 2322 37057
internal_value=0 0.0017862 0.0060728 0.0156206 -0.00679952 0.00394884 -0.0284552 -0.0381252 -0.0139541 -0.00338005 -0.0195438 -0.0238209 -0.0426237
internal_weight=0 8596.56 5738.06 1034.81 2858.49 4703.26 616.996 285.784 915.433 1943.06 331.213 189.215 232.429
internal_count=346854 279869 127959 33033 151910 94926 66985 44060 71271 80639 22925 18828 41055
is_linear=0
shrinkage=0.06


Tree=38
num_leaves=11
num_cat=0
split_feature=5 1 3 5 2 1 5 3 1 6
split_gain=128.477 72.3326 30.4618 25.1561 23.1919 14.0929 11.5631 8.12889 3.30009 0.624012
threshold=1.5000000000000002 1.0000000180025095e-35 1.0000000180025095e-35 1.0000000180025095e-35 1.0000000180025095e-35 2.5000000000000004 1.0000000180025095e-35 1.0000000180025095e-35 1.0000000180025095e-35 1.0000000180025095e-35
decision_type=10 2 2 8 2 2 8 2 2 2
left_child=1 4 6 -4 9 8 -3 -6 -2 -1
right_child=5 2 3 -5 7 -7 -8 -9 -10 -11
leaf_value=-0.019814744529290284 -0.042167171601084172 0.0037021126003764964 0.021964767146985028 0.002980939624827894 -0.0069645707812299252 -0.0030006442704169833 -0.010445239895079414 6.5951142148472835e-05 -0.026012571361771913 -0.0092602432277716692
leaf_weight=406.21109511004761 233.29479170311242 4647.3143561836332 625.37796997558326 430.1526828603819 1442.8307353979908 53.637042940594256 211.56201297137886 981.63489570841193 123.20801494922489 51.805493899621069
leaf_count=40566 42405 92872 15858 17251 53391 3912 6197 55228 14794 4380
internal_value=0 0.00129178 0.00509284 0.0143186 -0.00648819 -0.0328641 0.00306738 -0.00410644 -0.0371373 -0.0188245
internal_weight=0 8796.89 5914.41 1055.53 2882.48 410.14 4858.88 2424.47 356.503 458.017
internal_count=346854 285743 132178 33109 153565 61111 99069 108619 57199 44946
is_linear=0
shrinkage=0.06


Tree=39
num_leaves=8
num_cat=0
split_feature=5 0 0 2 3 2 2
split_gain=117.695 77.3804 54.3806 40.3124 13.0902 9.25485 2.30594
threshold=1.5000000000000002 28.500000000000004 2.5000000000000004 1.5000000000000002 1.0000000180025095e-35 1.5000000000000002 6.5000000000000009
decision_type=10 2 2 2 2 2 2
left_child=1 2 3 -1 -4 -2 -7
right_child=5 -3 4 -5 -6 6 -8
leaf_value=-0.012160701798018762 -0.045592770383386945 0.049675179785731993 0.0055652438808028839 -0.0001466740537993578 0.01886879699403865 -0.027759641250290061 -0.011798356522367725
leaf_weight=1317.3304601511918 131.70691148284823 112.0443527251482 2853.0102041019127 4227.0919498382136 294.18240606132895 201.46965209115297 64.257225632667542
leaf_count=98127 26965 457 37024 146944 3191 28810 5336
internal_value=0 0.0012106 0.000552805 -0.00301711 0.00685007 -0.0319692 -0.0243443
internal_weight=0 8803.66 8691.62 5544.42 3147.19 397.434 265.727
internal_count=346854 285743 285286 245071 40215 61111 34146
is_linear=0
shrinkage=0.06


Tree=40
num_leaves=11
num_cat=0
split_feature=4 1 7 3 3 5 7 1 1 5
split_gain=116.659 65.6625 33.8491 33.8047 18.888 11.0292 9.80768 9.33803 7.73722 3.65248
threshold=6029.5000000000009 1.5000000000000002 1.0000000180025095e-35 1.0000000180025095e-35 1.0000000180025095e-35 7.0000000000000009 1.0000000180025095e-35 1.0000000180025095e-35 1.0000000180025095e-35 1.5000000000000002
decision_type=2 2 2 2 2 8 2 2 2 8
left_child=1 2 8 6 -4 -5 -3 9 -1 -2
right_child=7 3 4 5 -6 -7 -8 -9 -10 -11
leaf_value=-0.0086440835082553964 -0.011947679025207207 0.00130198428986603 0.001336182085284132 0.028111253659880708 0.019408592122402039 0.0080402670566663784 0.0081451163587955705 -0.020467968876398648 -0.0028396134478542137 -0.042395167789892482
leaf_weight=2115.8284340030514 24.814462688751519 1361.0363012785092 1385.8028611587361 339.13293037330732 241.64187499321997 154.70350508484989 1739.1241112314165 227.23846669727936 1409.2587452777661 190.22664559446275
leaf_count=138021 1620 32562 27325 6370 3754 5009 17216 19722 56475 38780
internal_value=0 0.00129869 -0.00303657 0.00752118 0.00409652 0.0220515 0.0051613 -0.0301161 -0.00634278 -0.0394239
internal_weight=0 8746.53 5152.53 3594 1627.44 493.836 3100.16 442.28 3525.09 215.041
internal_count=346854 286732 225575 61157 31079 11379 49778 60122 194496 40400
is_linear=0
shrinkage=0.06


Tree=41
num_leaves=14
num_cat=0
split_feature=4 1 2 3 7 2 7 4 7 1 3 4 4
split_gain=106.842 59.0056 29.1556 28.4042 18.4986 11.0903 9.14009 5.62476 3.25155 1.26219 0.628453 0.52005 0.41809
threshold=1020.0000000000001 1.5000000000000002 1.0000000180025095e-35 1.0000000180025095e-35 1.0000000180025095e-35 1.5000000000000002 1.0000000180025095e-35 52258.000000000007 1.0000000180025095e-35 1.0000000180025095e-35 1.0000000180025095e-35 6029.5000000000009 7728.5000000000009
decision_type=2 2 2 2 2 2 2 2 2 2 2 2 2
left_child=1 2 10 6 -4 12 -3 11 -5 -9 -1 -7 -2
right_child=5 3 4 8 -6 7 -8 9 -10 -11 -12 -13 -14
leaf_value=-0.010686080320829737 -0.0192292689999977 0.0014097402355172529 -0.0040712311874731609 0.016407917524866346 0.0038769830877734427 -0.0097375341477399461 0.0080654195914375143 -0.038879757543447635 0.02812956977169118 -0.02149940210147375 -0.018878267668571473 -0.01729190242362658 -0.043863578460521642
leaf_weight=94.140134799759835 21.19187554018572 1339.6465539876372 3005.66893740464 329.12585353478789 1613.371367209591 116.60317691182718 1719.7709713131189 60.66291431710124 165.87949083372951 83.430481806397438 347.12911869678646 172.92044685035944 109.66872389661148
leaf_count=7796 2421 31660 144568 9750 30572 4976 16844 10980 1290 9114 37389 14867 24627
internal_value=0 0.00144412 -0.00271094 0.00736683 -0.00128475 -0.0253887 0.00517182 -0.0201562 0.0206619 -0.0301567 -0.017364 -0.014609 -0.0410379
internal_weight=0 8614.73 5060.31 3554.42 4619.04 564.478 3059.42 433.617 495.005 144.093 441.269 289.524 130.861
internal_count=346854 279869 220325 59544 175140 66985 48504 39937 11040 20094 45185 19843 27048
is_linear=0
shrinkage=0.06


Tree=42
num_leaves=12
num_cat=0
split_feature=4 0 6 1 0 7 1 7 0 1 4
split_gain=97.4215 67.0475 42.8658 18.6418 14.1693 9.86365 9.00079 4.91281 3.84003 2.9738 1.49914
threshold=6029.5000000000009 4.5000000000000009 2.5000000000000004 3.5000000000000004 10.500000000000002 430047.50000000006 1.0000000180025095e-35 438362.00000000006 3.5000000000000004 3.5000000000000004 35583.000000000007
decision_type=2 2 2 2 2 2 2 2 2 2 2
left_child=1 2 5 -4 7 -1 10 -3 9 -8 -2
right_child=6 4 3 -5 -6 -7 8 -9 -10 -11 -12
leaf_value=-0.0052189996620886974 -0.02414003919890197 0.0093019675828385027 0.0010402005046170528 0.012415255560601001 0.017112977363253377 -0.017402632956949739 -0.017396178434446203 0.00093910048909603158 -0.03368443229595524 0.00080023817863750972 -0.042582555529824172
leaf_weight=3381.6443537604064 61.680190945509821 797.17597242631018 2483.5481187524274 654.51124049257487 789.03166102617979 257.85815474018455 133.30999814812094 388.25488928332925 49.333233781158924 36.008731632027775 138.15033975476399
leaf_count=177272 10431 7896 76817 11192 3753 6362 16413 3440 859 2450 29969
internal_value=0 0.00114544 -0.00168531 0.00344206 0.0108632 -0.00611642 -0.0283195 0.00661367 -0.0187945 -0.0133735 -0.0378233
internal_weight=0 8752.02 6777.56 3138.06 1974.46 3639.5 418.482 1185.43 218.652 169.319 199.831
internal_count=346854 286732 271643 88009 15089 183634 60122 11336 19722 18863 40400
is_linear=0
shrinkage=0.06


Tree=43
num_leaves=10
num_cat=0
split_feature=4 0 0 1 1 3 4 0 1
split_gain=89.9554 61.6621 42.8342 26.9275 10.1865 8.11294 5.22164 4.92091 3.09064
threshold=1020.0000000000001 28.500000000000004 2.5000000000000004 2.5000000000000004 1.0000000180025095e-35 1.0000000180025095e-35 35583.000000000007 3.5000000000000004 2.5000000000000004
decision_type=2 2 2 2 2 2 2 2 2
left_child=1 2 3 -1 6 -4 -2 8 -6
right_child=4 -3 5 -5 7 -7 -8 -9 -10
leaf_value=-0.0043860495512006593 -0.020716451225449146 0.044497114546945264 0.0052546381609173461 0.0071604754411810209 -0.015584278037417061 0.015685569816283954 -0.041825251508267443 -0.028735535388310408 -0.00027768052609343768
leaf_weight=4539.5249860864133 103.30100075085647 112.31667217612267 2806.9154583271593 858.66843378636986 148.55568208405748 299.9352740989998 132.4776297507342 79.677950498647988 77.254754968453199
leaf_count=222355 14091 455 35539 18376 16740 3144 29969 1225 4960
internal_value=0 0.00128906 0.00068771 -0.00253669 -0.0238177 0.00629872 -0.0333736 -0.0158884 -0.010649
internal_weight=0 8617.36 8505.04 5398.19 541.267 3106.85 235.779 305.488 225.81
internal_count=346854 279869 279414 240731 66985 38683 44060 22925 21700
is_linear=0
shrinkage=0.06


Tree=44
num_leaves=14
num_cat=0
split_feature=4 0 6 2 3 4 0 2 2 2 6 6 6
split_gain=82.1222 54.8655 41.5 16.852 16.5969 11.2394 10.9112 4.73036 4.66072 3.64827 8.29156 0.549068 0.309453
threshold=149.50000000000003 4.5000000000000009 2.5000000000000004 1.0000000180025095e-35 1.0000000180025095e-35 35583.000000000007 10.500000000000002 7.5000000000000009 6.5000000000000009 2.5000000000000004 4.5000000000000009 1.0000000180025095e-35 7.5000000000000009
decision_type=2 2 2 2 2 2 2 2 2 2 2 2 2
left_child=1 2 3 -1 -4 9 7 -3 12 11 -11 -2 -7
right_child=5 6 4 -5 -6 8 -8 -9 -10 10 -12 -13 -14
leaf_value=-0.017011428022670878 -0.030956379291819887 0.0091350673220905662 0.0014727291176560501 -0.0041560500718542193 0.012199857710502301 -0.038694084509155569 0.015688881074745219 0.00095524268748189609 -0.011109692972106237 0.0022640844936738765 -0.018520392782542756 -0.015634807435515732 -0.021564856596115432
leaf_weight=415.85125582385808 47.751066485187039 768.94291739910841 2381.0660668695346 3124.9818856995553 664.27228351915255 150.43770876061171 779.79862128198147 399.1858682371676 44.497236473485827 109.72913750493899 163.86550492979586 56.7544264937751 40.549389311112463
leaf_count=43913 6247 7291 59619 134832 23740 32399 3672 3717 3731 6314 7947 6963 6469
internal_value=0 0.00133084 -0.0012815 -0.00569955 0.00384254 -0.0213081 0.0101656 0.00639155 -0.0317305 -0.014378 -0.0101427 -0.024113 -0.0359145
internal_weight=0 8534.1 6586.17 3540.83 3045.34 613.584 1947.93 1168.13 235.484 378.1 273.595 104.505 190.987
internal_count=346854 276784 262104 178745 83359 70070 14680 11008 42599 27471 14261 13210 38868
is_linear=0
shrinkage=0.06


Tree=45
num_leaves=12
num_cat=0
split_feature=4 1 3 7 1 7 1 7 6 1 4
split_gain=75.0689 42.3692 20.7486 16.7487 11.4979 9.55851 8.36813 6.6 2.46239 1.62216 1.46055
threshold=6029.5000000000009 1.0000000180025095e-35 1.0000000180025095e-35 1.0000000180025095e-35 1.5000000000000002 1.0000000180025095e-35 1.0000000180025095e-35 107091.00000000001 1.5000000000000002 4.5000000000000009 35583.000000000007
decision_type=2 2 2 2 2 2 2 2 2 2 2
left_child=1 5 3 -3 -4 8 10 -7 -1 -8 -2
right_child=6 2 4 -5 -6 7 9 -9 -10 -11 -12
leaf_value=-0.0088897058157829389 -0.022017342155309667 -0.0015635957284931567 0.005313661165728816 0.0054801342090671813 0.01782867021322131 0.0080915124571631896 -0.01906958978105416 -0.0035422885591024438 -0.0044369065474330113 -0.0032990124218449978 -0.040400706246750961
leaf_weight=1266.2685367646627 58.094765875022858 2299.5536272884347 577.45789053384215 2552.0542064541951 513.66091297520325 271.32111411076039 170.74684278806672 473.29283492546529 793.8776337695308 37.621403446421027 122.90280541614629
leaf_count=100079 10431 67932 22426 29425 11379 6205 17978 11344 37942 1744 29969
internal_value=0 0.000960354 0.00383233 0.00213474 0.0112981 -0.00510583 -0.0257998 0.000666482 -0.00720905 -0.016563 -0.0354765
internal_weight=0 8747.49 5942.73 4851.61 1091.12 2804.76 389.366 744.614 2060.15 208.368 180.998
internal_count=346854 286732 131162 97357 33805 155570 60122 17549 138021 19722 40400
is_linear=0
shrinkage=0.06


Tree=46
num_leaves=10
num_cat=0
split_feature=4 0 0 7 5 3 4 0 4
split_gain=68.9982 50.0933 30.9111 19.909 10.103 6.34005 4.5261 1.38883 0.244473
threshold=149.50000000000003 28.500000000000004 2.5000000000000004 299999.50000000006 0.75000000000000011 1.0000000180025095e-35 10362.500000000002 2.5000000000000004 3942.0000000000005
decision_type=2 2 2 2 8 2 2 2 2
left_child=1 2 3 -1 7 -4 8 -2 -6
right_child=4 -3 5 -5 6 -7 -8 -9 -10
leaf_value=-0.001117117155669077 -0.0052112351496857853 0.040161739898668426 0.0044643006815777977 -0.015585319556032528 -0.015001196706137171 0.013634791024130897 -0.029995985749378729 -0.015368354651449477 -0.004449871758910145
leaf_weight=4951.2323823696934 140.67351292725652 112.1556811183691 2805.6254848623648 363.90810773801059 38.422917651943862 304.13282681070268 279.45437092683278 99.359158613719046 34.971315310336649
leaf_count=228735 6943 453 35173 9302 3153 3121 53777 1689 4508
internal_value=0 0.00119191 0.000644634 -0.00212931 -0.0198914 0.0053951 -0.0263959 -0.00981488 -0.0111139
internal_weight=0 8537.05 8424.9 5315.14 592.881 3109.76 352.849 240.033 73.3942
internal_count=346854 276784 276331 238037 70070 38294 61438 8632 7661
is_linear=0
shrinkage=0.06


Tree=47
num_leaves=9
num_cat=0
split_feature=5 0 0 3 6 6 0 6
split_gain=61.1088 46.756 26.613 42.4677 12.0651 4.87643 2.24532 0.401764
threshold=1.5000000000000002 28.500000000000004 1.0000000180025095e-35 1.0000000180025095e-35 1.5000000000000002 4.5000000000000009 1.5000000000000002 11.500000000000002
decision_type=10 2 2 2 2 2 2 2
left_child=1 2 4 -4 -1 -2 7 -7
right_child=5 -3 3 -5 -6 6 -8 -9
leaf_value=-0.0091011358733901811 -0.031965055936506254 0.038256112520662314 0.00017091444948701454 0.013817112572876473 -0.00022052171122344816 -0.012599412865953886 0 -0.025890925587954597
leaf_weight=1295.0570090371184 191.44523782865144 113.19408802688122 5451.3898926787078 962.97891328250989 973.12327655125409 59.930306730559096 32.035002150572836 41.39866271126084
leaf_count=99845 41519 457 117943 27023 40475 11067 1916 6609
internal_value=0 0.000770526 0.000255257 0.00223531 -0.0053184 -0.0255349 -0.0151793 -0.0193869
internal_weight=0 8795.74 8682.55 6414.37 2268.18 324.809 133.364 101.329
internal_count=346854 285743 285286 144966 140320 61111 19592 17676
is_linear=0
shrinkage=0.06


Tree=48
num_leaves=12
num_cat=0
split_feature=1 0 0 2 1 0 7 2 2 7 7
split_gain=47.2472 35.1586 22.9235 11.7156 10.659 17.608 12.1282 3.01813 2.1934 3.09856 2.49627
threshold=1.0000000180025095e-35 24.500000000000004 1.0000000180025095e-35 1.0000000180025095e-35 4.5000000000000009 6.5000000000000009 235242.00000000003 1.5000000000000002 1.5000000000000002 103412.50000000001 59683.000000000007
decision_type=2 2 2 2 2 2 2 2 2 2 2
left_child=2 4 3 -1 5 -2 -6 -5 9 -4 -10
right_child=1 -3 8 7 6 -7 -8 -9 10 -11 -12
leaf_value=-0.020801940675987916 -0.00067541843478016901 0.029814626109903 0.0058586772701789899 -0.012498377777251964 0.012285554255474484 0.0088118418336821762 -0.0018681903542248435 -0.0053914297517826427 -0.0048554398714204276 -0.0057228708564683092 0.00070617797572844465
leaf_weight=398.08903896249831 4173.4148084917106 164.15242712199688 274.65229912428185 394.15324464906007 670.01835816446692 840.8458256162703 313.07440233044326 571.63729102956131 752.12713983980939 110.74091604026034 450.1786609836854
leaf_count=53245 131155 663 15141 39759 11329 5101 2636 44268 29974 3105 10478
internal_value=0 0.00281736 -0.00640789 -0.0121024 0.0020472 0.000914334 0.00774902 -0.00838458 -0.00146715 0.00239252 -0.00274392
internal_weight=0 6161.51 2951.58 1363.88 5997.35 5014.26 983.093 965.791 1587.7 385.393 1202.31
internal_count=346854 150884 195970 137272 150221 136256 13965 84027 58698 18246 40452
is_linear=0
shrinkage=0.06


Tree=49
num_leaves=9
num_cat=0
split_feature=5 0 2 3 1 0 2 1
split_gain=54.7738 37.7618 23.7873 19.4956 12.0682 5.66602 3.97234 0.215688
threshold=1.5000000000000002 28.500000000000004 1.0000000180025095e-35 1.0000000180025095e-35 2.5000000000000004 1.0000000180025095e-35 1.5000000000000002 1.0000000180025095e-35
decision_type=10 2 2 2 2 2 2 2
left_child=1 2 5 -4 6 -1 7 -2
right_child=4 -3 3 -5 -6 -7 -8 -9
leaf_value=-0.016677478373611516 -0.042687979079060002 0.034418771855689964 -0.00069533614551791712 0.0060533824328226991 0.0023206915485655321 0.0025350169621145432 -0.022168430038310274 -0.014707324157799278
leaf_weight=349.01428564777598 82.847433432471007 113.1510875672102 6225.783739334438 2039.346682778094 47.597427610307932 59.683800905011594 172.17264097509906 12.987704812549053
leaf_count=40612 24322 457 152061 88279 3912 4334 30340 2537
internal_value=0 0.000724438 0.000260477 0.000967424 -0.0245229 -0.0137735 -0.0293992 -0.0402298
internal_weight=0 8786.98 8673.83 8265.13 315.605 408.698 268.008 95.8351
internal_count=346854 285743 285286 240340 61111 44946 57199 26859
is_linear=0
shrinkage=0.06


Tree=50
num_leaves=13
num_cat=0
split_feature=4 2 6 3 2 6 4 6 4 6 6 5
split_gain=54.0732 24.4376 16.2436 14.7467 9.24057 4.77079 8.04406 2.62122 1.60151 0.724029 0.584647 1.64483
threshold=149.50000000000003 1.0000000180025095e-35 23.500000000000004 1.0000000180025095e-35 1.5000000000000002 2.5000000000000004 32632.500000000004 1.0000000180025095e-35 14725.500000000002 12.500000000000002 1.0000000180025095e-35 1.0000000180025095e-35
decision_type=2 2 2 2 2 2 2 2 2 2 2 8
left_child=1 10 3 -3 7 6 -6 -2 -9 -7 11 -1
right_child=4 2 -4 -5 5 9 -8 8 -10 -11 -12 -13
leaf_value=-0.0072422274510783678 -0.042233424585809053 -0.00024001311500722298 0.016658438029890577 0.005708197581341415 0.0061755980189354218 -0.014553972269188135 -0.024029465891290857 0 -0.025028943873193283 -0.023435522758887831 -0.0046947216910263167 -0.017248846896678095
leaf_weight=115.9771345295012 64.395902927499264 5873.9769154754467 250.68749750824645 2004.6246712733991 90.561683698324487 223.76947233220562 41.934942063177004 16.081122427014634 32.018485541921109 98.219630821375176 46.155554953496903 238.81985635776073
leaf_count=10797 16282 141790 3251 86890 6098 20354 8248 2055 9560 7473 4271 29785
internal_value=0 0.00103942 0.00176041 0.00127078 -0.0180162 -0.0137723 -0.00360497 -0.0334883 -0.018115 -0.0177086 -0.0133166 -0.0142407
internal_weight=0 8530.24 8129.29 7878.6 566.981 454.486 132.497 112.496 48.0996 321.989 400.953 354.797
internal_count=346854 276784 231931 228680 70070 42173 14346 27897 11615 27827 44853 40582
is_linear=0
shrinkage=0.06


Tree=51
num_leaves=15
num_cat=0
split_feature=5 3 0 6 4 0 6 6 0 6 6 0 5 6
split_gain=49.2047 43.285 38.8879 30.9825 25.4487 22.152 10.6136 9.26128 4.89552 3.42031 2.68662 2.25035 1.80476 0.385158
threshold=1.0000000180025095e-35 1.0000000180025095e-35 5.5000000000000009 8.5000000000000018 6029.5000000000009 1.0000000180025095e-35 4.5000000000000009 1.0000000180025095e-35 1.0000000180025095e-35 1.0000000180025095e-35 2.5000000000000004 3.5000000000000004 7.0000000000000009 3.5000000000000004
decision_type=8 2 2 2 2 2 2 2 2 2 2 2 8 2
left_child=1 2 3 -1 7 10 -4 8 -2 -6 -3 -11 -9 -7
right_child=4 5 6 -5 9 13 -8 12 -10 11 -12 -13 -14 -15
leaf_value=-0.0050400595121841904 -0.013127780144094214 0 0.013394397501691201 0.0068674637276525978 -0.0361791268035059 0.022467779817288168 0.0029061597688694674 0.0040758996742477713 -2.259297295389735e-05 -0.015847517303508019 0.009406626229622345 -0.032327514985672837 -0.0026168327678529214 0.016578284420984472
leaf_weight=3722.5005983649753 544.62436918588355 319.95034436555579 790.44498001411557 990.01106531172991 72.570399249671027 385.66604841966182 644.15310864523053 178.12998130824417 134.11479538399726 222.82768973940983 158.50499628484249 47.282951864413917 649.05191595945507 235.47824323642999
leaf_count=122522 53885 19254 5117 18588 18815 9283 4311 7260 5117 39869 5235 1112 32502 3984
internal_value=0 0.0020743 0.000102311 -0.00252498 -0.00887932 0.01301 0.00874067 -0.00544411 -0.0106188 -0.0235593 0.0031496 -0.0194201 -0.00110928 0.0204523
internal_weight=0 7246.71 6147.11 4712.51 1848.6 1099.6 1434.6 1505.92 678.739 342.681 478.455 270.111 827.182 621.144
internal_count=346854 188294 150538 141110 158560 37756 9428 98764 59002 59796 24489 40981 39762 13267
is_linear=0
shrinkage=0.06


Tree=52
num_leaves=13
num_cat=0
split_feature=4 7 6 3 7 4 3 7 5 6 6 6
split_gain=45.2968 21.0994 20.0437 18.2501 16.1545 7.66654 5.60284 3.76715 3.72989 1.96723 0.83917 0.952071
threshold=149.50000000000003 1.0000000180025095e-35 2.5000000000000004 1.0000000180025095e-35 115031.00000000001 52258.000000000007 1.0000000180025095e-35 214145.00000000003 5.5000000000000009 1.0000000180025095e-35 4.5000000000000009 10.500000000000002
decision_type=2 2 2 2 2 2 2 2 8 2 2 2
left_child=1 2 8 4 -3 7 -4 9 -1 -2 -7 -12
right_child=5 3 6 -5 -6 10 -8 -9 -10 -11 11 -13
leaf_value=-0.0035533313052730836 -0.024463795960419036 0.0097140925419417316 0.00066365867785264654 0.016050280255987193 0.0001078561229218243 -0.032883389809299945 0.0073604878057358467 0.0027046682774016059 -0.0084649186058311388 -0.011175561698183137 -0.0078555672408191467 -0.025726354521509519
leaf_weight=1755.944701152388 58.874459004495293 878.85885168518871 1778.400972105097 427.54930891469121 2228.2489999700338 94.499777452554554 605.56991676753387 50.566933453083038 860.38777136569843 276.41383312107064 35.489529551938176 35.318312693620101
leaf_count=84979 8681 13029 48360 4975 30253 25694 22644 989 72544 23092 6591 5023
internal_value=0 0.000930718 -0.00157093 0.00447877 0.00284976 -0.0167406 0.00239419 -0.0116598 -0.00519761 -0.0139575 -0.0276629 -0.0184323
internal_weight=0 8534.96 5000.3 3534.66 3107.11 551.163 2383.97 385.855 2616.33 335.288 165.308 70.8078
internal_count=346854 276784 228527 48257 43282 70070 71004 32762 157523 31773 37308 11614
is_linear=0
shrinkage=0.06


Tree=53
num_leaves=11
num_cat=0
split_feature=4 0 1 3 0 1 4 0 1 0
split_gain=40.9825 30.2788 22.2887 13.1888 8.71593 7.25775 6.30899 2.66612 3.44379 1.73152
threshold=149.50000000000003 28.500000000000004 1.0000000180025095e-35 1.0000000180025095e-35 1.0000000180025095e-35 1.0000000180025095e-35 35583.000000000007 4.5000000000000009 1.5000000000000002 1.0000000180025095e-35
decision_type=2 2 2 2 2 2 2 2 2 2
left_child=1 2 4 -4 -1 6 9 8 -7 -2
right_child=5 -3 3 -5 -6 7 -8 -9 -10 -11
leaf_value=-0.0079229402713046036 -0.01967784366773799 0.031198264396664163 0.0011591620278994445 0.0085018333912389357 -0.0010019152645100338 -0.014237502842984794 -0.035877353723447518 -0.020331725391807269 -0.00014349212138704386 -0.0032665476957374341
leaf_weight=1173.8963610893115 66.677819762611762 111.96580636501312 4649.7288306057453 1088.1297735031694 1514.403704803437 114.1477389940992 99.604589186608791 70.291580384597182 144.24511466221884 47.939457469154149
leaf_count=97916 12721 453 93377 32604 52434 13243 29969 852 10372 2913
internal_value=0 0.000875053 0.000448877 0.00256513 -0.0040488 -0.0160519 -0.0247253 -0.00998725 -0.00668121 -0.0135883
internal_weight=0 8538.12 8426.16 5737.86 2688.3 542.906 214.222 328.684 258.393 114.617
internal_count=346854 276784 276331 125981 150350 70070 45603 24467 23615 15634
is_linear=0
shrinkage=0.06


Tree=54
num_leaves=13
num_cat=0
split_feature=5 3 0 1 7 5 1 1 1 1 0 7
split_gain=37.6631 35.0618 32.583 22.2511 21.6215 16.1752 10.9164 6.03538 4.38617 3.15116 1.81415 1.36065
threshold=1.0000000180025095e-35 1.0000000180025095e-35 7.5000000000000009 5.5000000000000009 59683.000000000007 1.5000000000000002 2.5000000000000004 1.5000000000000002 1.0000000180025095e-35 1.0000000180025095e-35 1.0000000180025095e-35 18098.500000000004
decision_type=8 2 2 2 2 10 2 2 2 2 2 2
left_child=1 2 3 -1 7 8 9 -3 10 -7 -2 -10
right_child=5 4 -4 -5 -6 6 -8 -9 11 -11 -12 -13
leaf_value=-0.0032160666549149565 -0.0097519153825802018 0.0040807078593297933 0.0096858372077853021 0.010521096448100302 0.02861569091546097 -0.031784566826099848 0.0048199782013374657 0.015040218280232281 0 -0.01503061127542678 -0.0032635898546498634 -0.0064188586276063006
leaf_weight=4648.0655634803697 646.04561610193923 643.6379642188549 1036.139314584434 461.16037827730179 212.76490691676736 147.85879636206664 45.678596277721226 260.17114049661905 492.56909679109231 93.02258330443874 241.42500324547291 146.5628521554172
leaf_count=138378 62890 30384 5633 6527 2064 42405 3912 5308 21446 14794 11111 2002
internal_value=0 0.00179125 3.9437e-06 -0.00195886 0.0115468 -0.007864 -0.0208795 0.00734712 -0.00533325 -0.0259226 -0.00806208 -0.00144573
internal_weight=0 7261.94 6145.37 5109.23 1116.57 1813.16 286.56 903.809 1526.6 240.881 887.471 639.132
internal_count=346854 188294 150538 144905 37756 158560 61111 35692 97449 57199 74001 23448
is_linear=0
shrinkage=0.06


Tree=55
num_leaves=12
num_cat=0
split_feature=4 0 1 6 2 2 6 4 0 0 4
split_gain=34.2414 25.8713 17.4783 9.76776 7.95096 7.535 5.17664 6.42092 2.97207 2.8821 0.623231
threshold=149.50000000000003 26.500000000000004 1.0000000180025095e-35 23.500000000000004 1.5000000000000002 1.0000000180025095e-35 2.5000000000000004 32632.500000000004 1.0000000180025095e-35 4.5000000000000009 7728.5000000000009
decision_type=2 2 2 2 2 2 2 2 2 2 2
left_child=1 2 5 -4 8 -1 7 -6 10 -8 -2
right_child=4 -3 3 -5 6 -7 9 -9 -10 -11 -12
leaf_value=-0.011383155639226483 -0.013621654057228602 0.026253689232569603 0.0016946288150512198 0.01400925641486688 0.0082366465721972239 -0.0023006868289932019 -0.011662139745187632 -0.019942342521636607 -0.0038311129187718887 -0.027931424481606536 -0.038673352815041209
leaf_weight=385.14057278819382 17.713525974890217 136.28718610107899 5491.7925260877237 238.60692452918738 87.873455262510106 2284.4040845534764 250.31439809664153 37.305896257050335 17.931401506066322 54.318295280449092 63.95737999281846
leaf_count=44853 2781 553 123047 2837 6098 105494 27025 8248 1826 802 23290
internal_value=0 0.000787808 0.000354261 0.00222648 -0.014867 -0.00364557 -0.0109359 -0.000282017 -0.0300955 -0.0151029 -0.0348238
internal_weight=0 8536.23 8399.94 5730.4 529.414 2669.54 429.812 125.179 99.6023 304.633 81.6709
internal_count=346854 276784 276231 125884 70070 150347 42173 14346 27897 27827 26071
is_linear=0
shrinkage=0.06


Tree=56
num_leaves=13
num_cat=0
split_feature=5 3 0 6 0 5 1 1 1 1 6 1
split_gain=30.8242 31.0349 29.9243 21.7882 15.3877 12.7338 10.1406 6.11095 4.02947 3.01889 2.76469 1.92176
threshold=0.75000000000000011 1.0000000180025095e-35 8.5000000000000018 8.5000000000000018 1.0000000180025095e-35 1.5000000000000002 3.5000000000000004 3.5000000000000004 1.0000000180025095e-35 1.0000000180025095e-35 1.5000000000000002 1.0000000180025095e-35
decision_type=8 2 2 2 2 10 2 2 2 2 2 2
left_child=1 2 3 -1 9 7 8 10 -7 -3 -2 -6
right_child=5 4 -4 -5 11 6 -8 -9 -10 -11 -12 -13
leaf_value=-0.0039674394916784251 -0.0081848987087487276 -0.002324343109398636 0.0096963517111463525 0.0050781287488484315 0.021929203166766709 -0.030303162539076143 0.011886574331474151 0.014019215898354665 -0.012946362180884515 0.0068860694228844175 -0.0020808212934082101 0.013746624210173294
leaf_weight=4176.7509631202556 796.59055090066977 237.1567276311107 936.57174082845449 1235.8486421969719 207.14924288261682 140.38069665315561 28.521000355947763 51.212735830806196 107.39339169161394 257.88326923269778 438.75012095691636 445.36022613942623
leaf_count=131215 66926 16224 4770 21883 6288 42405 2216 1296 16490 9104 20790 7247
internal_value=0 0.00146829 -0.000169313 -0.00189155 0.0105267 -0.0077816 -0.0194178 -0.00518464 -0.0233512 0.00241056 -0.00606793 0.0165552
internal_weight=0 7496.72 6349.17 5412.6 1147.55 1562.85 276.295 1286.55 247.774 495.04 1235.34 652.509
internal_count=346854 196731 157868 153098 38863 150123 61111 89012 58895 25328 87716 13535
is_linear=0
shrinkage=0.06


Tree=57
num_leaves=12
num_cat=0
split_feature=4 0 0 6 6 4 1 6 6 5 1
split_gain=29.0098 22.3406 15.5409 14.9401 7.99345 5.86799 3.79719 2.16527 8.85373 2.18563 1.32263
threshold=149.50000000000003 28.500000000000004 1.5000000000000002 1.5000000000000002 15.500000000000002 52258.000000000007 3.5000000000000004 2.5000000000000004 1.0000000180025095e-35 4.5000000000000009 1.0000000180025095e-35
decision_type=2 2 2 2 2 2 2 2 2 10 2
left_child=1 2 3 -1 -4 7 10 8 -2 -9 -7
right_child=5 -3 4 -5 -6 6 -8 9 -10 -11 -12
leaf_value=-0.0060023234304845867 -0.01860283759187719 0.026830575596438741 0.0019220682943300929 0.0013181101561183252 0.010347434807753577 -0.03328115399799008 0.0023426637025599144 -0.015875117196713293 0.01098789550596509 -0.00084383846329380216 -0.016097267297900314
leaf_weight=2008.404366731178 63.508000141009688 111.373764321208 3978.6351663395762 1983.6214645500295 451.08611551392823 76.599577989196405 14.087332198396323 183.60352001152933 71.636046023108065 50.828033464029431 57.718942196806893
leaf_count=133397 8864 453 67071 71084 4779 26570 1132 7723 7026 9149 9606
internal_value=0 0.000716625 0.000350581 -0.00235722 0.00280021 -0.0138403 -0.0239927 -0.00938552 -0.00278552 -0.0128772 -0.0270411
internal_weight=0 8533.12 8421.75 3992.03 4429.72 517.981 148.406 369.576 135.144 234.432 134.319
internal_count=346854 276784 276331 204481 71850 70070 37308 32762 15890 16872 36176
is_linear=0
shrinkage=0.06


Tree=58
num_leaves=12
num_cat=0
split_feature=5 3 1 5 1 6 2 1 6 2 6
split_gain=25.4584 27.9109 10.9391 14.862 10.1419 5.83507 4.90921 3.89567 4.00218 2.50056 1.46594
threshold=0.75000000000000011 1.0000000180025095e-35 3.5000000000000004 1.5000000000000002 1.0000000180025095e-35 23.500000000000004 1.5000000000000002 1.5000000000000002 3.5000000000000004 1.0000000180025095e-35 5.5000000000000009
decision_type=8 2 2 10 2 2 2 2 2 2 2
left_child=1 4 3 9 10 -6 -5 8 -3 -2 -1
right_child=2 7 -4 6 5 -7 -8 -9 -10 -11 -12
leaf_value=-0.0055323121688751727 -0.011056937212844542 0.0096751973711234045 0.013630084604262202 -0.034947917229312883 0.00059637853929407538 0.010329876327289961 -0.014886814534699326 0.014995375932940605 -0.00016280086223617796 -0.0041080435873357786 -0.00043624677938184492
leaf_weight=1186.4155512559228 244.80013922369108 590.9537639208138 80.615180947352201 74.967632379615679 4661.8518747063354 228.89057637471706 163.69126108754426 377.41896201577038 187.11816119402647 979.60498980665579 268.11882265144959
leaf_count=52119 32213 27305 3512 26923 94998 2631 31972 6190 5368 55503 8120
internal_value=0 0.00132672 -0.00712211 -0.0083367 -0.000231354 0.00107058 -0.0219486 0.00988307 0.00726969 -0.00557084 -0.00462643
internal_weight=0 7500.77 1543.68 1463.06 6345.28 4890.74 238.659 1155.49 778.072 1224.41 1454.53
internal_count=346854 196731 150123 146611 157868 97629 58895 38863 32673 87716 60239
is_linear=0
shrinkage=0.06


Tree=59
num_leaves=15
num_cat=0
split_feature=1 2 3 7 2 7 1 3 7 2 6 6 6 6
split_gain=19.8596 8.82196 8.32531 6.87036 22.4825 12.5471 6.07243 5.53511 10.3491 4.68983 1.49033 1.28853 0.503153 0.0715314
threshold=1.0000000180025095e-35 1.0000000180025095e-35 1.0000000180025095e-35 1.0000000180025095e-35 3.5000000000000004 365444.50000000006 1.5000000000000002 1.0000000180025095e-35 41445.000000000007 5.5000000000000009 8.5000000000000018 2.5000000000000004 1.0000000180025095e-35 1.5000000000000002
decision_type=2 2 2 2 2 2 2 2 2 2 2 2 2 2
left_child=1 12 3 4 -2 -5 9 10 -9 -4 -3 -8 -1 -14
right_child=2 7 6 5 -6 -7 11 8 -10 -11 -12 -13 13 -15
leaf_value=-0.01335651099433156 -0.011111408815283884 -0.0059035755068020399 -0.0004716050911747006 0.0063363860193169632 0.0019307824809758648 -0.00203349812886816 0.0064946607477407454 -0.0014704835719597611 0.018644083373075489 0.012425425010640742 0.00013508881106361601 0.013141582678889771 -0.00037881896963758708 -0.0071095237728277224
leaf_weight=353.56918457453139 648.45873482758179 1283.9619497815147 497.91580662643537 1529.220438064076 1735.6305689564906 1098.8178921174258 220.11977464403026 898.38022656738758 97.396655823104084 120.72704127803445 150.57262923847884 352.2217831693124 25.641466810135171 28.360572959529236
leaf_count=50277 30876 63222 22581 18503 48785 11961 5755 66275 1697 3856 6762 8567 3645 4092
internal_value=0 -0.00426673 0.00178803 0.000704533 -0.00161487 0.00282366 0.00629069 -0.00286032 0.000538268 0.00205732 -0.0052423 0.0107363 -0.0124149 -0.00492839
internal_weight=0 2837.88 6203.11 5012.13 2384.09 2628.04 1190.98 2430.31 995.777 618.643 1434.53 572.342 407.571 54.002
internal_count=346854 195970 150884 110125 79661 30464 40759 137956 67972 26437 69984 14322 58014 7737
is_linear=0
shrinkage=0.06


Tree=60
num_leaves=13
num_cat=0
split_feature=4 1 5 6 1 6 2 1 5 5 2 2
split_gain=24.4589 13.7643 7.26197 6.31192 5.04652 3.45664 4.00774 2.22989 2.22737 1.67135 3.37319 0.716099
threshold=6858.0000000000009 1.5000000000000002 5.5000000000000009 15.500000000000002 1.0000000180025095e-35 23.500000000000004 3.5000000000000004 1.0000000180025095e-35 1.5000000000000002 5.5000000000000009 4.5000000000000009 1.5000000000000002
decision_type=2 2 8 2 2 2 2 2 8 10 2 2
left_child=1 2 3 -1 8 6 -3 -4 -2 -6 -11 -10
right_child=4 5 7 -5 9 -7 -8 -9 11 10 -12 -13
leaf_value=-0.00078832181216897024 -0.0029230237449616473 0.0065017154863087926 -0.0074831785100844608 0.013344768656654226 -0.014758216660948002 0.01029513446831744 0.0016127073723230831 -0.0010349816499266706 -0.036837259300758908 -0.012447082041552681 0.010741126902709799 -0.019373923097822047
leaf_weight=3803.9455112484284 18.325743573252112 789.817300056573 813.08894298807718 112.10417429730296 91.9449933541473 233.65827769367024 2708.7091827355325 275.82828526897356 50.830861806636676 47.087306038476527 33.893392067402601 57.530890653841197
leaf_count=137496 1517 14929 73362 2348 5302 2627 43799 12980 22022 9547 4511 16414
internal_value=0 0.000474552 -0.00157576 -0.000356524 -0.0168201 0.00323375 0.00273613 -0.00590041 -0.0259729 -0.00933711 -0.00219324 -0.0291997
internal_weight=0 8737.15 5004.97 3916.05 299.613 3732.18 3498.53 1088.92 126.687 172.926 80.9807 108.362
internal_count=346854 287541 226186 139844 59313 61355 58728 86342 39953 19360 14058 38436
is_linear=0
shrinkage=0.06


Tree=61
num_leaves=11
num_cat=0
split_feature=4 0 0 7 7 4 7 0 6 6
split_gain=22.6939 19.2738 11.5228 11.8637 6.32083 4.69811 3.21355 3.23006 0.690562 1.59819
threshold=149.50000000000003 28.500000000000004 1.5000000000000002 160599.50000000003 419580.00000000006 52258.000000000007 214145.00000000003 4.5000000000000009 4.5000000000000009 10.500000000000002
decision_type=2 2 2 2 2 2 2 2 2 2
left_child=1 2 3 -1 -4 6 7 -2 -7 -10
right_child=5 -3 4 -5 -6 8 -8 -9 9 -11
leaf_value=-0.0012514690653396172 -0.0078420900084078173 0.024928309152761004 0.0036779204028664437 -0.015697437212127945 -0.0015541027762553162 -0.026872862218177841 0.004889286682129795 -0.026200482208166252 -0.0018024677542516033 -0.022261524964289139
leaf_weight=3758.3294952753931 273.8959581956733 110.95179475843906 3360.853386121802 212.46143938973546 1087.8116945307702 76.781811038497835 49.046440319158137 40.040205300785601 31.364501612028107 31.781369833042845
leaf_count=198249 31235 453 59604 6232 12246 25694 989 538 6591 5023
internal_value=0 0.000628465 0.00028865 -0.00205375 0.00238882 -0.0124255 -0.00843234 -0.0106893 -0.0218458 -0.0135937
internal_weight=0 8530.41 8419.46 3970.79 4448.67 502.91 362.983 313.936 139.928 63.1459
internal_count=346854 276784 276331 204481 71850 70070 32762 31773 37308 11614
is_linear=0
shrinkage=0.06


Tree=62
num_leaves=12
num_cat=0
split_feature=4 0 0 2 2 2 6 4 6 0 4
split_gain=20.4842 17.1741 10.7495 17.7599 5.81404 5.73399 4.97828 4.7134 3.59532 3.04901 0.97244
threshold=149.50000000000003 28.500000000000004 3.5000000000000004 7.5000000000000009 1.5000000000000002 7.5000000000000009 2.5000000000000004 32632.500000000004 1.0000000180025095e-35 4.5000000000000009 9085.0000000000018
decision_type=2 2 2 2 2 2 2 2 2 2 2
left_child=1 2 3 -1 8 -4 7 -6 -2 -8 -10
right_child=4 -3 5 -5 6 -7 9 -9 10 -11 -12
leaf_value=-0.0025625364331839239 -0.036522447158705652 0.023557376989508182 0.0056371842299962416 0.0061270454338503162 0.009021457822683222 -0.00058864682882614787 -0.0092354848288604043 -0.015900130769452635 0.0018860645605485984 -0.02591389782054369 -0.014914119206083083
leaf_weight=4990.4939227504656 48.147897248156369 110.66410300135612 1650.3986331801862 1012.9007395249791 86.797539078630507 766.75111022405326 238.48389065312222 33.518115514190868 12.311060386709867 51.857761291787028 26.401198474224657
leaf_count=231036 16282 453 15060 23126 6098 7109 27025 8248 1443 802 10172
internal_value=0 0.000590172 0.000269548 -0.00108555 -0.0118745 0.00364779 -0.00853682 0.00138614 -0.0258737 -0.0127449 -0.00900597
internal_weight=0 8531.21 8420.54 6003.39 497.517 2417.15 410.657 120.316 86.8602 290.342 38.7123
internal_count=346854 276784 276331 254162 70070 22169 42173 14346 27897 27827 11615
is_linear=0
shrinkage=0.06


Tree=63
num_leaves=14
num_cat=0
split_feature=4 1 7 2 7 7 2 1 7 7 5 2 2
split_gain=18.5277 10.8533 7.93848 9.1459 6.46682 7.68011 5.94791 4.76164 5.05739 3.45777 2.06771 1.75974 0.725164
threshold=6858.0000000000009 1.5000000000000002 1.0000000180025095e-35 3.5000000000000004 250340.50000000003 1.0000000180025095e-35 6.5000000000000009 1.0000000180025095e-35 11996.500000000002 115031.00000000001 1.5000000000000002 3.5000000000000004 1.5000000000000002
decision_type=2 2 2 2 2 2 2 2 2 2 8 2 2
left_child=1 2 3 -1 5 -3 -6 10 11 -4 -2 -9 -12
right_child=7 4 9 -5 6 -7 -8 8 -10 -11 12 -13 -14
leaf_value=-0.0054489972973316555 -0.0019386798898272718 0.0020221309927021111 0.0056232819430832208 0.0010885439064689461 0.0027781778547970697 0.0087986276864826136 -0.0062452935077633815 -0.01051975322476169 -0.025081079099942442 -5.1581352548249681e-05 -0.035013487841257289 0.0035263571936081394 -0.017691266917945075
leaf_weight=2150.7280055070296 17.952907364815474 1753.80326193152 587.39360065106302 1181.7024028692394 598.78811317961663 934.12491388805211 457.52887857891619 44.004031617660075 39.836911434307694 1070.8190890895203 46.809608460403979 83.864338592160493 55.086835817433894
leaf_count=151201 1517 42803 10984 43873 5555 8893 4104 8997 981 20128 22022 9382 16414
internal_value=0 0.000397175 -0.00142866 -0.00312 0.00284066 0.0044047 -0.00110165 -0.0149519 -0.00768188 0.00194425 -0.0240734 -0.00120527 -0.0273072
internal_weight=0 8734.89 4990.64 3332.43 3744.25 2687.93 1056.32 287.555 167.705 1658.21 119.849 127.868 101.896
internal_count=346854 287541 226186 195074 61355 51696 9659 59313 19360 31112 39953 18379 38436
is_linear=0
shrinkage=0.06


Tree=64
num_leaves=11
num_cat=0
split_feature=4 0 0 2 2 2 0 0 4 4
split_gain=17.2326 15.0893 8.36458 15.0093 5.02276 4.39226 3.00862 2.79124 1.85083 0.561072
threshold=149.50000000000003 26.500000000000004 3.5000000000000004 7.5000000000000009 1.5000000000000002 7.5000000000000009 3.5000000000000004 1.0000000180025095e-35 701.50000000000011 7728.5000000000009
decision_type=2 2 2 2 2 2 2 2 2 2
left_child=1 2 3 -1 7 -4 8 9 -6 -2
right_child=4 -3 5 -5 6 -7 -8 -9 -10 -11
leaf_value=-0.0023583925814853381 -0.010048096551610935 0.020077650047082087 0.0049416301342553133 0.0056084681888322122 -0.01665045975010682 -0.00051902404614789289 -0.017185501767753349 0 -0.0026756126959755528 -0.033437075351910948
leaf_weight=4973.3801459511742 16.113023310201243 134.9138917028904 1639.5245848968625 1020.1118155457079 37.182815808337182 761.84230837784708 94.697905770037323 16.382189134834334 274.1564137651585 50.516189607791603
leaf_count=231036 2781 553 14981 23126 1491 7088 1837 1826 38845 23290
internal_value=0 0.000532656 0.000201784 -0.000991861 -0.0109922 0.00319429 -0.00789864 -0.024338 -0.00471417 -0.0294635
internal_weight=0 8529.77 8394.86 5993.49 489.049 2401.37 406.037 83.0114 311.339 66.6292
internal_count=346854 276784 276231 254162 70070 22069 42173 27897 40336 26071
is_linear=0
shrinkage=0.06


Tree=65
num_leaves=13
num_cat=0
split_feature=4 1 3 7 7 7 1 7 7 5 5 4
split_gain=15.6144 8.90956 8.75353 6.82922 10.4889 4.44347 4.33702 4.57448 3.88598 1.91197 1.34721 0.179082
threshold=6858.0000000000009 1.5000000000000002 1.0000000180025095e-35 56906.000000000007 100070.00000000001 250340.50000000003 1.0000000180025095e-35 11996.500000000002 45027.500000000007 1.5000000000000002 0.75000000000000011 150586.00000000003
decision_type=2 2 2 2 2 2 2 2 2 8 8 2
left_child=1 3 5 8 -5 -3 9 10 -1 -2 -8 -11
right_child=6 2 -4 4 -6 -7 7 -9 -10 11 -12 -13
leaf_value=-0.002354428260668907 -0.0014793563202995475 0.0028341420065791947 0.0094910423504577027 0.014805903642463277 4.6172749517238928e-05 -0.0019833441402005458 0.0089208734447129619 -0.023761223922507131 -0.016586442633546257 -0.018230918386464422 -0.0045714967774033279 -0.033321335452977358
leaf_weight=3581.506062871078 17.783453554613516 2211.3916557561606 556.04970670165494 201.02834782004356 1129.1819643899798 985.98054987657815 30.345017076004297 38.603536421898752 66.741351797245443 58.81322477653157 96.661560165695846 38.973198469961062
leaf_count=199676 1517 40746 11430 3802 21336 9179 1676 981 1372 21934 16703 16502
internal_value=0 0.000355935 0.00256519 -0.00130217 0.00235529 0.00133467 -0.0138858 -0.00694865 -0.00264863 -0.0227779 -0.000813877 -0.0259822
internal_weight=0 8731.88 3753.42 4978.46 1330.21 3197.37 281.18 165.61 3648.25 115.57 127.007 97.7864
internal_count=346854 287541 61355 226186 25138 49925 59313 19360 201048 39953 18379 38436
is_linear=0
shrinkage=0.06


Tree=66
num_leaves=9
num_cat=0
split_feature=0 4 2 2 0 2 0 0
split_gain=14.9028 14.0783 7.7978 6.01068 4.77174 4.41543 3.09089 2.59582
threshold=28.500000000000004 149.50000000000003 1.0000000180025095e-35 9.5000000000000018 1.0000000180025095e-35 1.5000000000000002 3.5000000000000004 1.0000000180025095e-35
decision_type=2 2 2 2 2 2 2 2
left_child=1 2 4 -4 -1 7 -7 -3
right_child=-2 5 3 -5 -6 6 -8 -9
leaf_value=-0.011303476654777201 0.021250484278903747 -0.028185755621618333 0.00010025785821102731 0.0061400825346244834 0.0069124195335298049 -0.0042051423565908656 -0.016955760920808201 0
leaf_weight=307.08628996042535 111.22906656563282 63.780058872536756 7415.7898610136472 641.35379652958363 55.543865476734936 308.52770750154741 91.61730369227007 16.262416627025232
leaf_count=40582 459 26071 222405 9073 4271 40336 1831 1826
internal_value=0 -0.000372357 0.000195317 0.000589751 -0.00834305 -0.0103122 -0.00740142 -0.0230788
internal_weight=0 8899.96 8419.77 8057.14 362.63 480.187 400.145 80.0425
internal_count=346854 346395 276331 231478 44853 70064 42167 27897
is_linear=0
shrinkage=0.06


Tree=67
num_leaves=11
num_cat=0
split_feature=5 4 6 7 7 2 6 2 2 6
split_gain=13.4673 9.2782 6.74591 5.26525 5.79369 4.06019 3.48611 2.0057 1.52581 0.774127
threshold=0.75000000000000011 10362.500000000002 17.500000000000004 2678957.5000000005 1.0000000180025095e-35 6.5000000000000009 1.5000000000000002 2.5000000000000004 1.5000000000000002 1.0000000180025095e-35
decision_type=8 2 2 2 2 2 2 2 2 2
left_child=2 6 3 4 -1 9 8 -8 -2 -3
right_child=1 5 -4 -5 -6 -7 7 -9 -10 -11
leaf_value=-0.00083164246777020338 -0.0079845587254206932 -0.031311068057170738 0.0076572410456206162 -0.0089070485925482109 0.0026761408495109299 0 -0.0046448558142910589 0.0032121469059731823 -0.0022957755190934873 -0.016844349491651464
leaf_weight=3731.2913488768972 481.69806375540793 39.923273224732839 498.70381750538945 204.08876025862992 3081.3494791472331 42.661451552528888 171.98491937411018 334.4299419329036 306.72478262078948 114.37179872347042
leaf_count=144528 53816 17362 6344 3153 42706 4878 11607 14025 16898 31537
internal_value=0 -0.00528677 0.000944741 0.000456566 0.000749562 -0.0173092 -0.00336618 0.00044236 -0.00585277 -0.0217165
internal_weight=0 1491.79 7515.43 7016.73 6812.64 196.957 1294.84 506.415 788.423 154.295
internal_count=346854 150123 196731 190387 187234 53777 96346 25632 70714 48899
is_linear=0
shrinkage=0.06


Tree=68
num_leaves=7
num_cat=0
split_feature=0 4 6 0 5 1
split_gain=13.1315 11.8096 8.36008 5.75198 3.30817 2.79107
threshold=28.500000000000004 149.50000000000003 32.500000000000007 4.5000000000000009 7.0000000000000009 1.0000000180025095e-35
decision_type=2 2 2 2 8 2
left_child=1 2 3 -1 5 -3
right_child=-2 4 -4 -5 -6 -7
leaf_value=-0.00091530449177683153 0.019978148817277819 -0.014353346192672851 0.015413787542410705 0.0028726252470976325 -0.027339998439578569 -0.0040079651972486042
leaf_weight=6444.2452797456644 110.87687891721725 153.51201730291359 122.51911441516131 1853.5727613940835 32.428699524956755 287.08638176624663
leaf_count=260990 459 39974 1467 13874 7833 22257
internal_value=0 -0.000349462 0.000166345 -6.28751e-05 -0.00952488 -0.00782734
internal_weight=0 8893.36 8420.34 8297.82 473.027 440.598
internal_count=346854 346395 276331 274864 70064 62231
is_linear=0
shrinkage=0.06


Tree=69
num_leaves=7
num_cat=0
split_feature=0 4 6 0 5 6
split_gain=11.7014 10.6264 7.34211 5.07868 3.1068 2.42064
threshold=28.500000000000004 149.50000000000003 32.500000000000007 4.5000000000000009 7.0000000000000009 12.500000000000002
decision_type=2 2 2 2 8 2
left_child=1 2 3 -1 5 -3
right_child=-2 4 -4 -5 -6 -7
leaf_value=-0.00086117858794359809 0.018884649301868572 -0.0049918627076118811 0.014371243525714061 0.0026962245274660649 -0.026546168011019566 -0.016739134918262587
leaf_weight=6438.8018049839884 110.55879636108875 356.25645331619307 123.84286128915846 1856.5833296570927 31.570678900461644 81.163994140108116
leaf_count=260990 459 55179 1467 13874 7833 7052
internal_value=0 -0.000330235 0.000156883 -5.87946e-05 -0.00907288 -0.00743106
internal_weight=0 8888.22 8419.23 8295.39 468.991 437.42
internal_count=346854 346395 276331 274864 70064 62231
is_linear=0
shrinkage=0.06


Tree=70
num_leaves=9
num_cat=0
split_feature=5 1 5 6 7 2 2 6
split_gain=10.8367 8.23294 7.09569 5.20093 4.83529 5.43809 3.53141 1.3185
